svm_type c_svc
kernel_type rbf
gamma 8
nr_class 2
total_sv 439
rho 0.931241
label 1 -1
nr_sv 74 365
SV
1.122001543147424 1:-0.953993 2:-0.981734 3:-0.999773 4:-0.0952289 5:-0.22381 6:-0.973554 7:-0.190515 8:-0.929897 9:-0.989135 10:0.353263 11:-0.0502164 12:-0.987191 13:-0.0962674 14:-0.986572 15:-0.95474 16:-0.979014 17:-0.930916 18:-0.991458 19:-0.961708 20:-0.99074 21:-0.843949 22:-0.82258 23:-0.736848 24:-0.967914 25:-0.602578 26:-0.96778 27:-0.647209 28:-0.957234 29:-0.689985 30:-0.968893 31:-0.757015 32:-0.978638 33:-0.897342 34:-0.960106 
0.345727066929685 1:-0.937533 2:-0.983547 3:-0.999763 4:-0.0953489 5:-0.223922 6:-0.978089 7:-0.197326 8:-0.942698 9:-0.988147 10:0.36118 11:-0.0379895 12:-0.982392 13:-0.0957237 14:-0.981503 15:-0.925109 16:-0.953596 17:-0.838961 18:-0.982316 19:-0.905939 20:-0.975832 21:-0.823475 22:-0.948877 23:-0.802002 24:-0.96402 25:-0.647016 26:-0.959056 27:-0.646567 28:-0.942104 29:-0.664212 30:-0.964273 31:-0.708144 32:-0.973867 33:-0.7631 34:-0.970797 
2.458549721229175 1:-0.912241 2:-0.990293 3:-0.999774 4:-0.0956571 5:-0.224106 6:-0.986828 7:-0.215153 8:-0.977762 9:-0.985131 10:0.373447 11:-0.0289119 12:-0.977346 13:-0.0937252 14:-0.97622 15:-0.916922 16:-0.951543 17:-0.831726 18:-0.962567 19:-0.8914 20:-0.973658 21:-0.822681 22:-0.918402 23:-0.782066 24:-0.976307 25:-0.686984 26:-0.976741 27:-0.710322 28:-0.961566 29:-0.719528 30:-0.939427 31:-0.719612 32:-0.952683 33:-0.748884 34:-0.945192 
0.8523619069704503 1:-0.778875 2:-0.998436 3:-0.999895 4:-0.0946001 5:-0.223423 6:-0.997195 7:-0.228285 8:-0.99526 9:-0.951354 10:0.378462 11:-0.0425938 12:-0.984338 13:-0.139269 14:-0.976997 15:-0.912159 16:-0.943497 17:-0.817284 18:-0.955249 19:-0.89845 20:-0.960422 21:-0.795232 22:-0.871347 23:-0.85561 24:-0.972561 25:-0.704399 26:-0.96566 27:-0.578015 28:-0.915126 29:-0.591451 30:-0.961432 31:-0.58638 32:-0.970938 33:-0.598891 34:-0.919867 
0.1218700877133152 1:-0.762817 2:-0.998785 3:-0.999888 4:-0.0945917 5:-0.223469 6:-0.997692 7:-0.229074 8:-0.997477 9:-0.957736 10:0.348668 11:-0.0413584 12:-0.986313 13:-0.132828 14:-0.978897 15:-0.887864 16:-0.968702 17:-0.773045 18:-0.973994 19:-0.879686 20:-0.985841 21:-0.725015 22:-0.882706 23:-0.826339 24:-0.973328 25:-0.704837 26:-0.964829 27:-0.711699 28:-0.943615 29:-0.68523 30:-0.944068 31:-0.68325 32:-0.95172 33:-0.866246 34:-0.957149 
1.01381620019346 1:-0.769722 2:-0.999472 3:-0.999846 4:-0.0945159 5:-0.223583 6:-0.998143 7:-0.230136 8:-0.995176 9:-0.951408 10:0.358754 11:-0.0337564 12:-0.985398 13:-0.135768 14:-0.981317 15:-0.833372 16:-0.967552 17:-0.731861 18:-0.969627 19:-0.85283 20:-0.955881 21:-0.705301 22:-0.910752 23:-0.821694 24:-0.96977 25:-0.746427 26:-0.969885 27:-0.714615 28:-0.898597 29:-0.720744 30:-0.934621 31:-0.747515 32:-0.940555 33:-0.825311 34:-0.960857 
1.324470153072481 1:-0.91489 2:-0.988356 3:-0.985899 4:-0.0941982 5:-0.206264 6:-0.999924 7:-0.229753 8:-0.96142 9:-0.982191 10:0.350281 11:-0.0333592 12:-0.977512 13:-0.0801314 14:-0.976254 15:-0.916691 16:-0.957659 17:-0.888689 18:-0.952762 19:-0.939931 20:-0.946062 21:-0.842168 22:-0.837445 23:-0.904257 24:-0.940156 25:-0.795699 26:-0.884706 27:-0.796358 28:-0.840396 29:-0.855115 30:-0.893136 31:-0.899052 32:-0.899164 33:-0.92171 34:-0.889609 
1.373505389417141 1:-0.973504 2:-0.960754 3:-0.953933 4:-0.0914959 5:-0.16796 6:-0.999806 7:-0.226765 8:-0.889194 9:-0.995888 10:0.363325 11:-0.0396203 12:-0.991065 13:-0.100769 14:-0.990881 15:-0.938859 16:-0.969518 17:-0.96766 18:-0.952659 19:-0.945945 20:-0.953432 21:-0.922768 22:-0.852329 23:-0.904745 24:-0.899995 25:-0.930253 26:-0.901126 27:-0.928898 28:-0.864917 29:-0.973496 30:-0.920073 31:-0.961006 32:-0.962264 33:-0.987933 34:-0.976916 
1.377420124998714 1:-0.97808 2:-0.9593 3:-0.946535 4:-0.0916455 5:-0.172245 6:-0.999826 7:-0.227736 8:-0.911809 9:-0.993454 10:0.36066 11:-0.039287 12:-0.991776 13:-0.102424 14:-0.991783 15:-0.698802 16:-0.946617 17:-0.681183 18:-0.949764 19:-0.872261 20:-0.948018 21:-0.845285 22:-0.821795 23:-1 24:-1 25:-0.857887 26:-0.919448 27:-0.830614 28:-0.870323 29:-0.928366 30:-0.911615 31:-0.965289 32:-0.942111 33:-0.989854 34:-0.979226 
0.7603243780859009 1:-0.990847 2:-0.893473 3:-0.869772 4:-0.0929706 5:-0.138297 6:-0.999938 7:-0.229537 8:-0.899767 9:-0.99709 10:0.360624 11:-0.0388569 12:-0.996678 13:-0.0984624 14:-0.996752 15:-0.937102 16:-0.978619 17:-0.714932 18:-0.943792 19:-1 20:-1 21:-0.870716 22:-0.849766 23:-1 24:-1 25:-0.913639 26:-0.920953 27:-0.934533 28:-0.983141 29:-0.95912 30:-0.915337 31:-1 32:-1 33:-0.989412 34:-0.980294 
0.7457080197400024 1:-0.99181 2:-0.875404 3:-0.860728 4:-0.0947958 5:-0.121317 6:-0.999963 7:-0.230613 8:-0.877987 9:-0.998575 10:0.361903 11:-0.0380559 12:-0.998009 13:-0.0993863 14:-0.997848 15:-0.9363 16:-0.944015 17:-1 18:-1 19:-0.966079 20:-0.924284 21:-1 22:-1 23:-0.965257 24:-0.912848 25:-0.978257 26:-0.988221 27:-1 28:-1 29:-0.964101 30:-0.91269 31:-1 32:-1 33:-0.989265 34:-0.986484 
2.913180249022751 1:-0.994942 2:-0.796364 3:-0.767738 4:-0.100654 5:-0.089955 6:-0.999894 7:-0.233767 8:-0.873436 9:-0.999057 10:0.361431 11:-0.0381244 12:-0.998147 13:-0.100914 14:-0.998118 15:-1 16:-1 17:-1 18:-1 19:-0.919708 20:-0.968928 21:-1 22:-1 23:-0.911458 24:-0.932376 25:-1 26:-1 27:-1 28:-1 29:-0.938608 30:-0.894796 31:-1 32:-1 33:-0.982895 34:-0.948405 
4.04528054535365 1:-0.996467 2:-0.764691 3:-0.737726 4:-0.100021 5:-0.053079 6:-0.999917 7:-0.233765 8:-0.821118 9:-0.999433 10:0.36201 11:-0.0387279 12:-0.999249 13:-0.0986194 14:-0.999181 15:-1 16:-1 17:-1 18:-1 19:-1 20:-1 21:-0.902754 22:-0.785269 23:-1 24:-1 25:-1 26:-1 27:-0.918673 28:-0.857249 29:-1 30:-1 31:-1 32:-1 33:-0.994965 34:-0.972346 
0.7430356751946851 1:-0.996628 2:-0.722522 3:-0.682887 4:-0.094038 5:-0.0434442 6:-0.999972 7:-0.230271 8:-0.832375 9:-0.999446 10:0.361939 11:-0.0381231 12:-0.998817 13:-0.099652 14:-0.998822 15:-0.994808 16:-0.983378 17:-1 18:-1 19:-1 20:-1 21:-0.830276 22:-0.793861 23:-1 24:-1 25:-1 26:-1 27:-0.936984 28:-0.890577 29:-1 30:-1 31:-1 32:-1 33:-0.99726 34:-0.979509 
7.47131787528942 1:-0.997109 2:-0.721674 3:-0.676451 4:-0.0954727 5:-0.0582542 6:-0.999971 7:-0.231004 8:-0.859838 9:-0.999437 10:0.362094 11:-0.0388596 12:-0.998675 13:-0.100805 14:-0.998694 15:-0.921284 16:-0.974595 17:-1 18:-1 19:-1 20:-1 21:-0.867628 22:-0.815382 23:-1 24:-1 25:-1 26:-1 27:-0.965683 28:-0.926392 29:-1 30:-1 31:-1 32:-1 33:-0.989068 34:-0.979307 
5.903164674521459 1:-0.998073 2:-0.612147 3:-0.567505 4:-0.0929286 5:-0.0627119 6:-0.999979 7:-0.230092 8:-0.903278 9:-0.999847 10:0.362022 11:-0.0387359 12:-0.99923 13:-0.0992972 14:-0.99924 15:-0.974319 16:-0.980279 17:-1 18:-1 19:-1 20:-1 21:-1 22:-1 23:-0.982393 24:-0.979448 25:-0.969941 26:-0.989548 27:-1 28:-1 29:-1 30:-1 31:-1 32:-1 33:-0.97101 34:-0.940557 
9.350507928579361 1:-0.998474 2:-0.606107 3:-0.562616 4:-0.114858 5:0.0323108 6:-0.999481 7:-0.241449 8:-0.75964 9:-0.999831 10:0.362208 11:-0.0388307 12:-0.99976 13:-0.0993848 14:-0.999739 15:-0.959892 16:-0.970095 17:-1 18:-1 19:-1 20:-1 21:-1 22:-1 23:-1 24:-1 25:-1 26:-1 27:-1 28:-1 29:-1 30:-1 31:-1 32:-1 33:-0.962712 34:-0.916653 
3.439008384101123 1:-0.997752 2:-0.618894 3:-0.577498 4:-0.110646 5:0.0675997 6:-0.99965 7:-0.240669 8:-0.677179 9:-0.999635 10:0.362082 11:-0.038658 12:-0.999356 13:-0.0994859 14:-0.999323 15:-0.979861 16:-0.922452 17:-1 18:-1 19:-1 20:-1 21:-1 22:-1 23:-1 24:-1 25:-0.949957 26:-0.918569 27:-1 28:-1 29:-1 30:-1 31:-1 32:-1 33:-0.973665 34:-0.977112 
2.628655232658777 1:-0.997431 2:-0.62778 3:-0.583684 4:-0.111458 5:0.0117031 6:-0.999616 7:-0.23933 8:-0.783711 9:-0.999592 10:0.362285 11:-0.0388408 12:-0.998626 13:-0.0995553 14:-0.998648 15:-0.970294 16:-0.970787 17:-1 18:-1 19:-1 20:-1 21:-0.925437 22:-0.882273 23:-1 24:-1 25:-1 26:-1 27:-0.920033 28:-0.873377 29:-1 30:-1 31:-1 32:-1 33:-0.977147 34:-0.976634 
2.886013359412348 1:-0.996307 2:-0.792345 3:-0.761621 4:-0.112651 5:-0.0415986 6:-0.999241 7:-0.243138 8:-0.774683 9:-0.999245 10:0.361903 11:-0.0385827 12:-0.999365 13:-0.0999841 14:-0.999285 15:-0.898588 16:-0.953201 17:-1 18:-1 19:-1 20:-1 21:-1 22:-1 23:-0.945712 24:-0.95323 25:-0.980392 26:-0.898607 27:-1 28:-1 29:-1 30:-1 31:-1 32:-1 33:-0.923707 34:-0.953187 
0.6467329103024165 1:-0.992854 2:-0.876823 3:-0.85839 4:-0.10772 5:-0.115904 6:-0.999337 7:-0.239654 8:-0.862374 9:-0.998286 10:0.362161 11:-0.0388246 12:-0.998148 13:-0.100047 14:-0.998114 15:-0.856589 16:-0.970361 17:-1 18:-1 19:-0.93433 20:-0.954787 21:-1 22:-1 23:-0.9863 24:-0.988814 25:-0.800282 26:-0.920633 27:-1 28:-1 29:-0.85783 30:-0.915742 31:-1 32:-1 33:-0.995665 34:-0.986449 
1.39747764722195 1:-0.841744 2:-0.998165 3:-0.997346 4:-0.0964486 5:-0.222273 6:-0.999593 7:-0.231528 8:-0.993047 9:-0.961458 10:0.328094 11:-0.036562 12:-0.982057 13:-0.104222 14:-0.979492 15:-0.959239 16:-0.978169 17:-0.672233 18:-0.974479 19:-0.829044 20:-0.976411 21:-0.726483 22:-0.921579 23:-0.865555 24:-0.971595 25:-0.866823 26:-0.948841 27:-0.815821 28:-0.87117 29:-0.820681 30:-0.899699 31:-0.839134 32:-0.905568 33:-0.859457 34:-0.894693 
1.262966854211577 1:-0.702035 2:-0.999964 3:-0.999981 4:-0.0951833 5:-0.22373 6:-0.999156 7:-0.231088 8:-0.99768 9:-0.95888 10:0.355351 11:-0.032329 12:-0.987153 13:-0.0583606 14:-0.982467 15:-0.948696 16:-0.976868 17:-0.742793 18:-0.943708 19:-0.85099 20:-0.930054 21:-0.740136 22:-0.795518 23:-0.821541 24:-0.925949 25:-0.767667 26:-0.922275 27:-0.736402 28:-0.8623 29:-0.726376 30:-0.915223 31:-0.876996 32:-0.948594 33:-0.878378 34:-0.97448 
1.241141195772395 1:-0.790036 2:-0.999041 3:-0.998747 4:-0.094002 5:-0.224792 6:-0.999342 7:-0.231769 8:-0.99229 9:-0.939143 10:0.369977 11:-0.0373855 12:-0.983582 13:-0.183848 14:-0.978416 15:-0.960134 16:-0.980307 17:-0.699571 18:-0.974642 19:-0.841215 20:-0.972958 21:-0.752477 22:-0.924546 23:-0.922212 24:-0.973636 25:-0.904063 26:-0.963318 27:-0.889646 28:-0.90856 29:-0.616426 30:-0.881025 31:-0.631299 32:-0.88188 33:-0.694711 34:-0.851181 
0.1784827447201194 1:-0.949496 2:-0.981121 3:-0.97766 4:-0.0914668 5:-0.255848 6:-0.999622 7:-0.235752 8:-0.921312 9:-0.989857 10:0.360785 11:-0.043172 12:-0.988663 13:-0.109076 14:-0.988178 15:-0.896428 16:-0.944308 17:-0.792104 18:-0.94029 19:-0.90016 20:-0.940005 21:-0.839361 22:-0.745618 23:-0.772449 24:-0.900726 25:-0.803841 26:-0.900419 27:-0.852741 28:-0.866438 29:-0.937585 30:-0.914362 31:-0.979171 32:-0.94244 33:-0.982725 34:-0.975713 
3.219785667970779 1:-0.962664 2:-0.975141 3:-0.971298 4:-0.0903533 5:-0.268215 6:-0.999512 7:-0.237712 8:-0.887882 9:-0.993718 10:0.361222 11:-0.0401579 12:-0.993224 13:-0.102218 14:-0.992407 15:-0.975706 16:-0.939367 17:-0.887006 18:-0.898335 19:-0.924837 20:-0.898536 21:-0.90919 22:-0.708698 23:-0.952511 24:-0.911978 25:-0.979962 26:-0.949933 27:-0.954276 28:-0.87595 29:-0.949217 30:-0.933211 31:-0.94919 32:-0.978509 33:-0.935972 34:-0.968109 
0.5219534165711138 1:-0.975752 2:-0.962101 3:-0.957037 4:-0.0893968 5:-0.274843 6:-0.999532 7:-0.237156 8:-0.900306 9:-0.99582 10:0.360206 11:-0.0403397 12:-0.995825 13:-0.100261 14:-0.995385 15:-0.917585 16:-0.944871 17:-0.912901 18:-0.923592 19:-1 20:-1 21:-0.828591 22:-0.695986 23:-0.929176 24:-0.907361 25:-1 26:-1 27:-0.944192 28:-0.875779 29:-1 30:-1 31:-0.927425 32:-0.934961 33:-0.960246 34:-0.966755 
0.2856301881192666 1:-0.978963 2:-0.951101 3:-0.944018 4:-0.0879112 5:-0.274027 6:-0.999437 7:-0.236844 8:-0.925587 9:-0.996219 10:0.360863 11:-0.0377199 12:-0.995112 13:-0.0998391 14:-0.994723 15:-0.956271 16:-0.954782 17:-0.870521 18:-0.945815 19:-0.898061 20:-0.89977 21:-1 22:-1 23:-0.918198 24:-0.898691 25:-0.948967 26:-0.899329 27:-0.99539 28:-0.984911 29:-0.978779 30:-0.92245 31:-0.944296 32:-0.991116 33:-0.951339 34:-0.967039 
0.8701381722393419 1:-0.98089 2:-0.948752 3:-0.940466 4:-0.0876236 5:-0.269349 6:-0.999431 7:-0.236164 8:-0.939726 9:-0.996246 10:0.361078 11:-0.0386069 12:-0.995306 13:-0.0986798 14:-0.995156 15:-0.991857 16:-0.989402 17:-0.777356 18:-0.963077 19:-0.903396 20:-0.946038 21:-1 22:-1 23:-0.819944 24:-0.899577 25:-0.842104 26:-0.899393 27:-0.990929 28:-0.957585 29:-0.943148 30:-0.90292 31:-0.938583 32:-0.92526 33:-0.959689 34:-0.969733 
1.646947312286543 1:-0.908065 2:-0.992679 3:-0.993026 4:-0.102507 5:-0.231978 6:-0.99545 7:-0.222602 8:-0.977647 9:-0.972576 10:0.336472 11:-0.032201 12:-0.974189 13:-0.0766513 14:-0.972609 15:-0.781891 16:-0.933743 17:-0.643951 18:-0.94642 19:-0.815601 20:-0.966729 21:-0.67648 22:-0.912177 23:-0.795762 24:-0.941401 25:-0.762141 26:-0.92037 27:-0.868326 28:-0.963556 29:-0.786132 30:-0.909754 31:-0.782173 32:-0.924072 33:-0.806555 34:-0.91198 
1.327044961894558 1:-0.885423 2:-0.996412 3:-0.995708 4:-0.0989558 5:-0.22747 6:-0.998007 7:-0.227717 8:-0.988957 9:-0.971592 10:0.331919 11:-0.0371298 12:-0.980014 13:-0.103447 14:-0.978402 15:-0.950528 16:-0.878535 17:-0.96418 18:-0.888712 19:-0.955071 20:-0.903555 21:-0.917704 22:-0.741727 23:-0.925415 24:-0.925815 25:-0.867787 26:-0.929384 27:-0.730463 28:-0.950453 29:-0.644691 30:-0.962243 31:-0.628315 32:-0.958415 33:-0.715588 34:-0.954038 
0.950380653359972 1:-0.740174 2:-0.999414 3:-0.998449 4:-0.0949309 5:-0.224683 6:-0.999939 7:-0.230977 8:-0.997161 9:-0.946324 10:0.341762 11:-0.0387246 12:-0.98701 13:-0.0993651 14:-0.978457 15:-0.839296 16:-0.908561 17:-0.90439 18:-0.911831 19:-0.940494 20:-0.913282 21:-0.927851 22:-0.783549 23:-0.932684 24:-0.921256 25:-0.910958 26:-0.923272 27:-0.914373 28:-0.875204 29:-0.813428 30:-0.896436 31:-0.82384 32:-0.897376 33:-0.955217 34:-0.895738 
5.649574593365818 1:-0.861897 2:-0.999139 3:-0.998319 4:-0.0951526 5:-0.223905 6:-0.999985 7:-0.230852 8:-0.998043 9:-0.988001 10:0.365684 11:-0.0447643 12:-0.991759 13:-0.0843594 14:-0.991021 15:-0.911892 16:-0.938873 17:-0.751803 18:-0.933588 19:-0.976029 20:-0.96068 21:-0.963156 22:-0.916031 23:-0.957167 24:-0.971941 25:-0.955035 26:-0.96993 27:-0.910074 28:-0.956258 29:-0.880705 30:-0.960235 31:-0.836467 32:-0.956048 33:-0.876366 34:-0.936072 
0.7755390442274744 1:-0.894897 2:-0.994972 3:-0.995618 4:-0.0999288 5:-0.227906 6:-0.996928 7:-0.226513 8:-0.990379 9:-0.980606 10:0.381713 11:-0.027117 12:-0.978434 13:-0.0790063 14:-0.976941 15:-0.883083 16:-0.963295 17:-0.852145 18:-0.973228 19:-0.939111 20:-0.957374 21:-0.874975 22:-0.855038 23:-0.939128 24:-0.945252 25:-0.720059 26:-0.943472 27:-0.861883 28:-0.974386 29:-0.703373 30:-0.953445 31:-0.68712 32:-0.95165 33:-0.759599 34:-0.936533 
0.6212622111950132 1:-0.907664 2:-0.993566 3:-0.993637 4:-0.102189 5:-0.230563 6:-0.995441 7:-0.223686 8:-0.977097 9:-0.968885 10:0.371087 11:-0.0375102 12:-0.97482 13:-0.107882 14:-0.974889 15:-0.746657 16:-0.90552 17:-0.622936 18:-0.913362 19:-0.827941 20:-0.929251 21:-0.745815 22:-0.817706 23:-0.743641 24:-0.931385 25:-0.671189 26:-0.896917 27:-0.904454 28:-0.981398 29:-0.757726 30:-0.928688 31:-0.741839 32:-0.9392 33:-0.811071 34:-0.922769 
1.961958284969912 1:-1 2:-0.413819 3:-0.882027 4:-0.445561 5:-0.152441 6:-0.416207 7:-0.425314 8:-0.931084 9:-1 10:0.362079 11:-0.0387332 12:-0.999994 13:-0.0994889 14:-0.999995 15:-0.916349 16:-0.979088 17:-1 18:-1 19:-1 20:-1 21:-1 22:-1 23:-1 24:-1 25:-1 26:-1 27:-1 28:-1 29:-1 30:-1 31:-1 32:-1 33:-1 34:-1 
1.294645397574543 1:-0.99992 2:-0.0199696 3:0.0836072 4:-0.0921632 5:-0.0844005 6:-0.999965 7:-0.2305 8:-0.971236 9:-0.999959 10:0.362094 11:-0.0387344 12:-0.999912 13:-0.0994957 14:-0.999907 15:-1 16:-1 17:-1 18:-1 19:-1 20:-1 21:-1 22:-1 23:-1 24:-1 25:-1 26:-1 27:-1 28:-1 29:-1 30:-1 31:-1 32:-1 33:-0.976643 34:-0.923917 
0.8082367486840263 1:-1 2:-0.111893 3:-0.0193773 4:-0.0877933 5:-0.307702 6:-0.99996 7:-0.231431 8:-0.988504 9:-0.999991 10:0.362082 11:-0.0387358 12:-0.999929 13:-0.0994905 14:-0.99993 15:-0.996878 16:-0.969543 17:-1 18:-1 19:-1 20:-1 21:-1 22:-1 23:-1 24:-1 25:-1 26:-1 27:-1 28:-1 29:-1 30:-1 31:-1 32:-1 33:-1 34:-1 
3.108977203508199 1:-0.999358 2:-0.485793 3:-0.878436 4:-0.423949 5:-0.192763 6:-0.500673 7:-0.307854 8:-0.983091 9:-0.999834 10:0.362094 11:-0.0387339 12:-0.999855 13:-0.0994497 14:-0.999846 15:-0.863693 16:-0.952583 17:-1 18:-1 19:-1 20:-1 21:-1 22:-1 23:-1 24:-1 25:-1 26:-1 27:-1 28:-1 29:-1 30:-1 31:-1 32:-1 33:-0.961942 34:-0.958696 
0.7352967843403089 1:-0.99992 2:-0.584663 3:-0.873924 4:-0.383284 5:-0.192643 6:-0.630386 7:-0.296148 8:-0.987729 9:-0.999978 10:0.362088 11:-0.038722 12:-0.999963 13:-0.0994876 14:-0.99996 15:-0.912041 16:-0.997799 17:-1 18:-1 19:-1 20:-1 21:-1 22:-1 23:-1 24:-1 25:-1 26:-1 27:-1 28:-1 29:-1 30:-1 31:-1 32:-1 33:-1 34:-1 
1.965129590828204 1:-1 2:-0.603031 3:-0.87367 4:-0.374161 5:-0.24411 6:-0.654086 7:-0.189497 8:-0.994747 9:-0.999995 10:0.362083 11:-0.0387327 12:-0.999968 13:-0.0994893 14:-0.999969 15:-1 16:-1 17:-1 18:-1 19:-1 20:-1 21:-1 22:-1 23:-1 24:-1 25:-1 26:-1 27:-1 28:-1 29:-1 30:-1 31:-1 32:-1 33:-0.933584 34:-0.999566 
1.964002114564052 1:-0.999759 2:-0.609799 3:-0.871781 4:-0.372938 5:-0.244191 6:-0.662146 7:-0.190124 8:-0.993693 9:-0.999963 10:0.362079 11:-0.0387319 12:-0.999933 13:-0.099507 14:-0.999931 15:-0.97457 16:-0.984458 17:-1 18:-1 19:-1 20:-1 21:-1 22:-1 23:-1 24:-1 25:-1 26:-1 27:-1 28:-1 29:-1 30:-1 31:-1 32:-1 33:-0.868574 34:-0.965336 
0.1911728750314988 1:-0.999438 2:-0.624445 3:-0.873853 4:-0.366471 5:-0.223901 6:-0.672367 7:-0.230525 8:-0.997578 9:-0.999895 10:0.362049 11:-0.0387305 12:-0.999878 13:-0.0994617 14:-0.999872 15:-0.905189 16:-0.950974 17:-1 18:-1 19:-1 20:-1 21:-1 22:-1 23:-1 24:-1 25:-1 26:-1 27:-1 28:-1 29:-1 30:-1 31:-1 32:-1 33:-0.883862 34:-0.956896 
10.84981568323573 1:-1 2:-0.45771 3:-0.402286 4:-0.0884692 5:-0.0694873 6:-0.999958 7:-0.229269 8:-0.936334 9:-1 10:0.362082 11:-0.0387332 12:-0.999995 13:-0.0994889 14:-0.999995 15:-0.998816 16:-0.97678 17:-1 18:-1 19:-1 20:-1 21:-1 22:-1 23:-1 24:-1 25:-1 26:-1 27:-1 28:-1 29:-1 30:-1 31:-1 32:-1 33:-1 34:-1 
11.19346303928667 1:-0.999518 2:-0.719214 3:-0.999758 4:-0.0886867 5:-0.231842 6:-0.640661 7:-0.9687 8:0.613203 9:-0.999851 10:0.36198 11:-0.0387211 12:-0.999847 13:-0.0994829 14:-0.999825 15:-1 16:-1 17:-1 18:-1 19:-1 20:-1 21:-1 22:-1 23:-1 24:-1 25:-1 26:-1 27:-1 28:-1 29:-1 30:-1 31:-1 32:-1 33:-0.640982 34:-0.93204 
3.787802646015702 1:-0.999679 2:-0.742847 3:-0.883345 4:-0.292217 5:-0.217032 6:-0.813154 7:-0.241257 8:-0.998212 9:-0.999955 10:0.36207 11:-0.0387279 12:-0.999945 13:-0.0994014 14:-0.999942 15:-0.946813 16:-0.958307 17:-1 18:-1 19:-1 20:-1 21:-1 22:-1 23:-1 24:-1 25:-1 26:-1 27:-1 28:-1 29:-1 30:-1 31:-1 32:-1 33:-0.885871 34:-0.994445 
3.792288863237324 1:-0.999599 2:-0.764035 3:-0.881136 4:-0.279403 5:-0.235271 6:-0.83969 7:-0.214424 8:-0.997568 9:-0.999901 10:0.362088 11:-0.038729 12:-0.999945 13:-0.0994738 14:-0.999927 15:-0.952734 16:-0.982268 17:-1 18:-1 19:-1 20:-1 21:-1 22:-1 23:-1 24:-1 25:-1 26:-1 27:-1 28:-1 29:-1 30:-1 31:-1 32:-1 33:-0.752573 34:-0.988769 
7.284396460687008 1:-1 2:-0.575377 3:-0.529771 4:-0.0869058 5:-0.183085 6:-0.999915 7:-0.230198 8:-0.994385 9:-0.999996 10:0.362107 11:-0.0387351 12:-0.999963 13:-0.0994703 14:-0.999964 15:-1 16:-1 17:-1 18:-1 19:-1 20:-1 21:-1 22:-1 23:-1 24:-1 25:-1 26:-1 27:-1 28:-1 29:-1 30:-1 31:-1 32:-1 33:-0.986421 34:-0.976393 
1.548255816214191 1:-0.999358 2:-0.770946 3:-0.880193 4:-0.274652 5:-0.252667 6:-0.848943 7:-0.191 8:-0.987643 9:-0.999876 10:0.362184 11:-0.0387346 12:-0.99984 13:-0.0995206 14:-0.999825 15:-0.926157 16:-0.974639 17:-1 18:-1 19:-1 20:-1 21:-1 22:-1 23:-0.923225 24:-0.989182 25:-0.89233 26:-0.988093 27:-1 28:-1 29:-1 30:-1 31:-1 32:-1 33:-0.974301 34:-0.984257 
1.074787418111753 1:-0.999599 2:-0.784238 3:-0.880886 4:-0.264389 5:-0.212809 6:-0.865044 7:-0.245115 8:-0.997568 9:-0.999923 10:0.362115 11:-0.0387238 12:-0.999948 13:-0.0994285 14:-0.999936 15:-0.88127 16:-0.973199 17:-1 18:-1 19:-1 20:-1 21:-1 22:-1 23:-1 24:-1 25:-1 26:-1 27:-1 28:-1 29:-1 30:-1 31:-1 32:-1 33:-0.884527 34:-0.995193 
1.638046068832284 1:-0.999438 2:-0.790846 3:-0.880964 4:-0.259022 5:-0.223808 6:-0.873268 7:-0.23076 8:-0.999329 9:-0.999937 10:0.362052 11:-0.0387467 12:-0.999833 13:-0.0994549 14:-0.99983 15:-1 16:-1 17:-1 18:-1 19:-1 20:-1 21:-0.871699 22:-0.926081 23:-1 24:-1 25:-1 26:-1 27:-0.82312 28:-0.991325 29:-1 30:-1 31:-1 32:-1 33:-1 34:-1 
13.6143171765651 1:-0.999679 2:-0.648041 3:-0.610626 4:-0.0924697 5:-0.151818 6:-0.999973 7:-0.230398 8:-0.978397 9:-0.999958 10:0.362073 11:-0.038764 12:-0.999881 13:-0.0994814 14:-0.999878 15:-0.999846 16:-0.981753 17:-1 18:-1 19:-1 20:-1 21:-1 22:-1 23:-0.963065 24:-0.941378 25:-1 26:-1 27:-1 28:-1 29:-1 30:-1 31:-1 32:-1 33:-1 34:-1 
3.666181913755965 1:-0.999599 2:-0.721854 3:-0.691178 4:-0.093708 5:-0.184016 6:-0.999978 7:-0.230682 8:-0.991388 9:-0.999946 10:0.362025 11:-0.0387705 12:-0.999881 13:-0.0994919 14:-0.999876 15:-0.99715 16:-0.966986 17:-1 18:-1 19:-1 20:-1 21:-1 22:-1 23:-1 24:-1 25:-0.924029 26:-0.948001 27:-1 28:-1 29:-1 30:-1 31:-1 32:-1 33:-1 34:-1 
0.1626935421921517 1:-0.999117 2:-0.85755 3:-0.872336 4:-0.18795 5:-0.239761 6:-0.962084 7:-0.22014 8:-0.995953 9:-0.999881 10:0.362249 11:-0.0386855 12:-0.999739 13:-0.0996882 14:-0.99973 15:-0.880584 16:-0.994309 17:-1 18:-1 19:-1 20:-1 21:-0.862625 22:-0.940123 23:-1 24:-1 25:-1 26:-1 27:-0.826207 28:-0.983301 29:-1 30:-1 31:-1 32:-1 33:-0.932427 34:-0.965655 
0.3231002743139714 1:-0.998876 2:-0.868638 3:-0.874187 4:-0.173075 5:-0.230167 6:-0.972854 7:-0.227189 8:-0.997033 9:-0.999751 10:0.362133 11:-0.0385975 12:-0.999698 13:-0.0994497 14:-0.999675 15:-0.871719 16:-0.98906 17:-1 18:-1 19:-1 20:-1 21:-0.924435 22:-0.867317 23:-1 24:-1 25:-1 26:-1 27:-0.664808 28:-0.975846 29:-1 30:-1 31:-1 32:-1 33:-0.952886 34:-0.962721 
0.242719323421706 1:-0.998876 2:-0.842133 3:-0.823781 4:-0.0936582 5:-0.220963 6:-0.999974 7:-0.230831 8:-0.9991 9:-0.999875 10:0.362076 11:-0.0387648 12:-0.999688 13:-0.0994829 14:-0.999681 15:-0.98162 16:-0.975181 17:-1 18:-1 19:-1 20:-1 21:-0.96716 22:-0.844805 23:-1 24:-1 25:-1 26:-1 27:-0.938735 28:-0.909765 29:-1 30:-1 31:-1 32:-1 33:-0.975284 34:-0.96916 
2.495834356786216 1:-0.998715 2:-0.886665 3:-0.880064 4:-0.140972 5:-0.23908 6:-0.990143 7:-0.225462 8:-0.994559 9:-0.999798 10:0.362124 11:-0.0386862 12:-0.999689 13:-0.099732 14:-0.999679 15:-0.992347 16:-0.978891 17:-1 18:-1 19:-1 20:-1 21:-0.880894 22:-0.883139 23:-1 24:-1 25:-1 26:-1 27:-0.841103 28:-0.927659 29:-1 30:-1 31:-1 32:-1 33:-0.781925 34:-0.955421 
2.334190247882626 1:-0.998876 2:-0.847213 3:-0.828159 4:-0.0944232 5:-0.220933 6:-0.999979 7:-0.230841 8:-0.998797 9:-0.999869 10:0.36204 11:-0.0386566 12:-0.999621 13:-0.0996361 14:-0.999618 15:-0.936183 16:-0.951138 17:-1 18:-1 19:-1 20:-1 21:-0.964356 22:-0.887162 23:-1 24:-1 25:-1 26:-1 27:-0.951047 28:-0.929138 29:-1 30:-1 31:-1 32:-1 33:-0.982156 34:-0.940582 
0.1762800579885662 1:-0.998314 2:-0.887423 3:-0.879162 4:-0.138145 5:-0.231324 6:-0.991359 7:-0.228367 8:-0.99819 9:-0.999648 10:0.362022 11:-0.0386775 12:-0.999386 13:-0.0999599 14:-0.999347 15:-0.897342 16:-0.956828 17:-1 18:-1 19:-0.868557 20:-0.946847 21:-1 22:-1 23:-1 24:-1 25:-0.907525 26:-0.960846 27:-1 28:-1 29:-0.922092 30:-0.972617 31:-1 32:-1 33:-0.982266 34:-0.974775 
8.019316798689992 1:-0.998314 2:-0.882061 3:-0.868443 4:-0.0940175 5:-0.206594 6:-0.999976 7:-0.230717 8:-0.996047 9:-0.999842 10:0.361969 11:-0.0388035 12:-0.999456 13:-0.0993149 14:-0.999449 15:-0.976742 16:-0.946521 17:-1 18:-1 19:-0.986998 20:-0.944295 21:-1 22:-1 23:-0.97357 24:-0.966501 25:-1 26:-1 27:-1 28:-1 29:-0.973416 30:-0.943801 31:-1 32:-1 33:-0.985984 34:-0.97447 
0.477021286715512 1:-0.998394 2:-0.894135 3:-0.879017 4:-0.108491 5:-0.249336 6:-0.999138 7:-0.228255 8:-0.988165 9:-0.999654 10:0.36207 11:-0.0388098 12:-0.999429 13:-0.0995614 14:-0.999412 15:-0.906292 16:-0.968369 17:-1 18:-1 19:-0.850404 20:-0.950385 21:-1 22:-1 23:-1 24:-1 25:-0.896788 26:-0.958113 27:-1 28:-1 29:-0.839337 30:-0.960098 31:-1 32:-1 33:-0.975547 34:-0.962717 
0.256967086860135 1:-0.997029 2:-0.927197 3:-0.914963 4:-0.0943634 5:-0.214746 6:-0.999968 7:-0.230776 8:-0.994819 9:-0.999465 10:0.362285 11:-0.0385882 12:-0.999236 13:-0.0995519 14:-0.99922 15:-0.98158 16:-0.983136 17:-0.829321 18:-0.945288 19:-1 20:-1 21:-0.927786 22:-0.783605 23:-1 24:-1 25:-0.899187 26:-0.908579 27:-1 28:-1 29:-0.961456 30:-0.926735 31:-1 32:-1 33:-0.956793 34:-0.968362 
3.945203577035227 1:-0.998474 2:-0.891496 3:-0.876721 4:-0.0785677 5:-0.255632 6:-0.998732 7:-0.234799 8:-0.982715 9:-0.999793 10:0.36201 11:-0.0386217 12:-0.999522 13:-0.0996278 14:-0.999539 15:-0.923289 16:-0.982427 17:-1 18:-1 19:-0.952274 20:-0.954762 21:-1 22:-1 23:-1 24:-1 25:-0.952129 26:-0.94545 27:-1 28:-1 29:-0.893762 30:-0.956981 31:-1 32:-1 33:-0.993277 34:-0.974391 
1.172243819528095 1:-0.993577 2:-0.957639 3:-0.951591 4:-0.094911 5:-0.209229 6:-0.999959 7:-0.230786 8:-0.992011 9:-0.998787 10:0.362225 11:-0.0391744 12:-0.998495 13:-0.099438 14:-0.998331 15:-0.966919 16:-0.941271 17:-0.894223 18:-0.930775 19:-0.951309 20:-0.884939 21:-1 22:-1 23:-0.9454 24:-0.897096 25:-0.939015 26:-0.910133 27:-1 28:-1 29:-0.967236 30:-0.923869 31:-0.878257 32:-0.96072 33:-0.980667 34:-0.992054 
1.965050999087734 1:-0.985066 2:-0.967645 3:-0.959876 4:-0.095373 5:-0.213417 6:-0.999969 7:-0.230905 8:-0.990151 9:-0.996948 10:0.362031 11:-0.0387769 12:-0.995751 13:-0.0988549 14:-0.99576 15:-0.884442 16:-0.950096 17:-0.735121 18:-0.93884 19:-0.888342 20:-0.938743 21:-0.74459 22:-0.700126 23:-0.875031 24:-0.899286 25:-0.987998 26:-0.987005 27:-0.839528 28:-0.866593 29:-0.878282 30:-0.922384 31:-0.843238 32:-0.954556 33:-0.875379 34:-0.957328 
0.5817478996779808 1:-0.991007 2:-0.968282 3:-0.962745 4:-0.0958322 5:-0.21398 6:-0.999952 7:-0.231017 8:-0.993488 9:-0.998132 10:0.361281 11:-0.038158 12:-0.997869 13:-0.10118 14:-0.997678 15:-0.960116 16:-0.948217 17:-0.924527 18:-0.940854 19:-0.955849 20:-0.93441 21:-0.84971 22:-0.703073 23:-1 24:-1 25:-0.857981 26:-0.899648 27:-0.857119 28:-0.866802 29:-0.889163 30:-0.908829 31:-0.945779 32:-0.965567 33:-0.977398 34:-0.965693 
1.054704790446035 1:-0.998796 2:-0.853137 3:-0.882916 4:0.0117354 5:-0.259933 6:-0.94513 7:-0.261256 8:-0.980077 9:-0.99976 10:0.362106 11:-0.0387695 12:-0.999599 13:-0.0994497 14:-0.99958 15:-0.988063 16:-0.990253 17:-1 18:-1 19:-0.934677 20:-0.975417 21:-1 22:-1 23:-0.847059 24:-0.966311 25:-1 26:-1 27:-1 28:-1 29:-0.704365 30:-0.976257 31:-1 32:-1 33:-1 34:-1 
2.295638410903217 1:-0.944036 2:-0.997314 3:-0.996157 4:-0.0951074 5:-0.222437 6:-0.999957 7:-0.230839 8:-0.998321 9:-0.989336 10:0.360693 11:-0.0405829 12:-0.993978 13:-0.100069 14:-0.992175 15:-0.953325 16:-0.930605 17:-0.890027 18:-0.924753 19:-0.955969 20:-0.928364 21:-0.926704 22:-0.672854 23:-0.923755 24:-0.892249 25:-0.887171 26:-0.889063 27:-0.891155 28:-0.850659 29:-0.901631 30:-0.895478 31:-0.886236 32:-0.90849 33:-0.863324 34:-0.874849 
0.7662736977670267 1:-0.998796 2:-0.825522 3:-0.884405 4:0.0401842 5:-0.232143 6:-0.910886 7:-0.239913 8:-0.997306 9:-0.999783 10:0.362034 11:-0.0387655 12:-0.999525 13:-0.0994708 14:-0.999512 15:-0.934383 16:-0.943055 17:-1 18:-1 19:-1 20:-1 21:-0.81609 22:-0.960335 23:-1 24:-1 25:-1 26:-1 27:-0.847993 28:-0.955021 29:-1 30:-1 31:-1 32:-1 33:-0.855914 34:-0.964758 
1.159947015775817 1:-0.999036 2:-0.822482 3:-0.884751 4:0.0431516 5:-0.283979 6:-0.906756 7:-0.297331 8:-0.945245 9:-0.999807 10:0.362085 11:-0.0386692 12:-0.999744 13:-0.0995297 14:-0.999743 15:-0.974788 16:-0.976638 17:-1 18:-1 19:-1 20:-1 21:-0.808223 22:-0.871653 23:-1 24:-1 25:-1 26:-1 27:-0.81743 28:-0.967831 29:-1 30:-1 31:-1 32:-1 33:-1 34:-1 
1.356789189948731 1:-0.999197 2:-0.81914 3:-0.884728 4:0.0453648 5:-0.269233 6:-0.903812 7:-0.28183 8:-0.969806 9:-0.999877 10:0.362129 11:-0.038698 12:-0.999846 13:-0.0994527 14:-0.999835 15:-0.990812 16:-0.964842 17:-1 18:-1 19:-1 20:-1 21:-1 22:-1 23:-0.894829 24:-0.965128 25:-1 26:-1 27:-1 28:-1 29:-1 30:-1 31:-1 32:-1 33:-0.85322 34:-0.985678 
0.5548229945603326 1:-0.999117 2:-0.813617 3:-0.883702 4:0.0521037 5:-0.258474 6:-0.895237 7:-0.271305 8:-0.980318 9:-0.999842 10:0.362101 11:-0.0387431 12:-0.999746 13:-0.0995614 14:-0.999742 15:-1 16:-1 17:-1 18:-1 19:-1 20:-1 21:-0.860716 22:-0.957116 23:-1 24:-1 25:-1 26:-1 27:-0.811136 28:-0.942035 29:-1 30:-1 31:-1 32:-1 33:-0.854877 34:-0.984993 
3.253933881827848 1:-0.712152 2:-0.999374 3:-0.998785 4:-0.09528 5:-0.22446 6:-0.99996 7:-0.230779 8:-0.998742 9:-0.959242 10:0.36766 11:-0.038047 12:-0.986215 13:-0.104037 14:-0.978624 15:-0.965217 16:-0.914908 17:-0.936401 18:-0.916026 19:-0.955475 20:-0.916547 21:-0.926078 22:-0.775521 23:-0.94516 24:-0.919554 25:-0.930869 26:-0.920525 27:-0.942847 28:-0.888254 29:-0.935405 30:-0.886349 31:-0.907725 32:-0.893937 33:-0.930078 34:-0.87174 
32 1:-0.836284 2:-0.999484 3:-0.998869 4:-0.0950916 5:-0.224219 6:-0.99999 7:-0.230875 8:-0.999255 9:-0.993603 10:0.35658 11:-0.037953 12:-0.994413 13:-0.101708 14:-0.993633 15:-0.965649 16:-0.965083 17:-0.937316 18:-0.970124 19:-0.912432 20:-0.972669 21:-0.941715 22:-0.915991 23:-0.960711 24:-0.970237 25:-0.958659 26:-0.970245 27:-0.922035 28:-0.949815 29:-0.900212 30:-0.953732 31:-0.873112 32:-0.956437 33:-0.91426 34:-0.956016 
-0.002014543001429355 1:-0.998956 2:-0.813338 3:-0.834491 4:-0.215219 5:-0.307847 6:-0.950877 7:-0.174535 8:-0.93092 9:-0.999892 10:0.362124 11:-0.038738 12:-0.998802 13:-0.0994368 14:-0.998835 15:-0.978174 16:-0.948031 17:-1 18:-1 19:-0.969208 20:-0.974486 21:-1 22:-1 23:-1 24:-1 25:-0.970372 26:-0.988679 27:-1 28:-1 29:-1 30:-1 31:-1 32:-1 33:-0.944527 34:-0.959285 
-0.007381603060159609 1:-0.999839 2:-0.681322 3:-0.960974 4:-0.251584 5:-0.229678 6:-0.647358 7:-0.208922 8:-0.997978 9:-0.999926 10:0.362046 11:-0.0387218 12:-0.999949 13:-0.0994633 14:-0.999936 15:-0.881611 16:-0.961179 17:-1 18:-1 19:-1 20:-1 21:-1 22:-1 23:-1 24:-1 25:-1 26:-1 27:-1 28:-1 29:-1 30:-1 31:-1 32:-1 33:-0.926916 34:-0.953652 
-0.0400504322873993 1:-0.995825 2:-0.532041 3:-0.720726 4:0.313462 5:0.0199184 6:-0.661759 7:0.0985165 8:-0.653335 9:-0.98393 10:0.373076 11:-0.0388192 12:-0.991654 13:-0.101071 14:-0.988535 15:-0.244887 16:-0.995071 17:-1 18:-1 19:-1 20:-1 21:0.461391 22:-0.887329 23:-1 24:-1 25:-1 26:-1 27:0.35549 28:-0.936352 29:-1 30:-1 31:-0.727122 32:-0.968283 33:0.742635 34:-0.92627 
-0.001818282789371018 1:-0.998073 2:-0.213206 3:-0.8502 4:-0.582336 5:-0.36301 6:-0.0999115 7:0.189897 8:-0.790376 9:-0.989987 10:0.36452 11:-0.0387467 12:-0.995916 13:-0.09951 14:-0.993849 15:-0.992516 16:-0.466658 17:-1 18:-1 19:-1 20:-1 21:-0.992066 22:0.627714 23:-1 24:-1 25:-1 26:-1 27:-0.990005 28:-0.484232 29:-0.996828 30:-0.915549 31:-1 32:-1 33:-0.992705 34:-0.835005 
-0.02719353222773427 1:-0.999358 2:0.0482729 3:-0.142478 4:0.624606 5:0.0814168 6:-0.66075 7:0.00457522 8:-0.819686 9:-0.999663 10:0.362345 11:-0.0387977 12:-0.999125 13:-0.0995493 14:-0.999123 15:-0.924591 16:-0.948525 17:-1 18:-1 19:-1 20:-1 21:-1 22:-1 23:-0.837268 24:-0.917322 25:-1 26:-1 27:-1 28:-1 29:-1 30:-1 31:-1 32:-1 33:-0.805685 34:-0.903776 
-0.0007065487260958377 1:-0.997832 2:-0.554133 3:-0.841406 4:-0.422031 5:-0.354595 6:-0.620305 7:0.0179162 8:-0.820179 9:-0.998458 10:0.362369 11:-0.0384537 12:-0.998073 13:-0.0991508 14:-0.997904 15:-0.753806 16:-0.924352 17:-1 18:-1 19:-1 20:-1 21:-0.550824 22:-0.77153 23:-1 24:-1 25:-1 26:-1 27:-0.59053 28:-0.887696 29:-1 30:-1 31:-1 32:-1 33:-0.705604 34:-0.942244 
-0.0007703485072907757 1:-0.998956 2:0.0196278 3:-0.851154 4:-0.653623 5:-0.361629 6:0.186911 7:0.24858 8:-0.793764 9:-0.995196 10:0.362942 11:-0.0387337 12:-0.998094 13:-0.0994845 14:-0.9971 15:-0.994133 16:-0.716542 17:-1 18:-1 19:-1 20:-1 21:-1 22:-1 23:-0.990317 24:-0.508582 25:-1 26:-1 27:-1 28:-1 29:-1 30:-1 31:-1 32:-1 33:-0.990786 34:-0.431727 
-0.001769552611308218 1:-0.999358 2:0.884924 3:0.9499 4:0.981932 5:0.995638 6:-0.665577 7:0.388274 8:0.225664 9:-0.998528 10:0.361747 11:-0.0388515 12:-0.998043 13:-0.0990783 14:-0.997825 15:-0.970261 16:-0.939326 17:-1 18:-1 19:-1 20:-1 21:-1 22:-1 23:-1 24:-1 25:-1 26:-1 27:-1 28:-1 29:-1 30:-1 31:-0.97096 32:-0.99905 33:0.163105 34:-0.993162 
-0.000670620524165999 1:-0.921073 2:-0.863388 3:-0.835397 4:-0.0830706 5:-0.393112 6:-0.99825 7:-0.243213 8:-0.697545 9:-0.599128 10:0.147932 11:-0.0372978 12:0.0863789 13:-0.0894016 14:0.127057 15:-0.968249 16:0.897741 17:-0.863138 18:0.910782 19:-0.945861 20:0.893745 21:-1 22:-1 23:-0.955167 24:0.88927 25:-0.893224 26:0.913631 27:-0.959827 28:0.952674 29:-0.947563 30:0.910889 31:-0.906651 32:0.783016 33:-0.952756 34:0.995254 
-0.002241304107312542 1:-0.998474 2:-0.666145 3:-0.981723 4:0.0208492 5:-0.168915 6:-0.558639 7:0.110064 8:-0.719233 9:-0.994496 10:0.360349 11:-0.0387285 12:-0.997767 13:-0.0995131 14:-0.996631 15:-0.992108 16:-0.603844 17:-1 18:-1 19:-0.99231 20:-0.595996 21:-1 22:-1 23:-0.998761 24:-0.91103 25:-0.993809 26:-0.776827 27:-1 28:-1 29:-0.992249 30:-0.713055 31:-1 32:-1 33:-0.996406 34:-0.782921 
-0.002687772770090075 1:-0.999839 2:-0.471378 3:-0.948212 4:-0.330259 5:-0.19682 6:-0.399695 7:-0.343356 8:-0.96779 9:-0.999883 10:0.36207 11:-0.0387305 12:-0.99992 13:-0.0995553 14:-0.999921 15:-0.860554 16:-0.917792 17:-1 18:-1 19:-1 20:-1 21:-1 22:-1 23:-1 24:-1 25:-1 26:-1 27:-1 28:-1 29:-1 30:-1 31:-1 32:-1 33:-1 34:-1 
-0.009006192162532421 1:-0.998153 2:-0.216201 3:-0.850407 4:-0.583426 5:-0.365488 6:-0.0948692 7:0.198761 8:-0.782651 9:-0.989242 10:0.361126 11:-0.038746 12:-0.99621 13:-0.0994225 14:-0.993962 15:-0.99407 16:-0.480493 17:-1 18:-1 19:-1 20:-1 21:-0.991704 22:0.387829 23:-1 24:-1 25:-1 26:-1 27:-0.991205 28:-0.588726 29:-0.992055 30:-0.828968 31:-1 32:-1 33:-0.993916 34:-0.838707 
-0.0007529738341712222 1:0.445743 2:-0.998523 3:-0.998906 4:-0.0952846 5:-0.223736 6:-0.997645 7:-0.230847 8:-0.999592 9:-0.465603 10:0.392066 11:-0.00870949 12:0.736545 13:-0.109111 14:0.774445 15:0.0855472 16:-0.979499 17:0.997499 18:-0.976341 19:0.100795 20:-0.980605 21:0.998519 22:-0.936635 23:0.42228 24:-0.974516 25:0.95395 26:-0.980959 27:0.843747 28:-0.970608 29:0.837435 30:-0.975864 31:0.855738 32:-0.982559 33:0.709744 34:-0.98043 
-0.0009419169787315274 1:-0.75824 2:-0.993828 3:-0.985539 4:-0.0887896 5:-0.21655 6:-0.997945 7:-0.227658 8:-0.992795 9:-0.665597 10:0.768012 11:-0.037572 12:-0.647358 13:0.115518 14:-0.589431 15:0.108054 16:-0.954055 17:0.961914 18:-0.954648 19:0.0838236 20:-0.951727 21:0.936238 22:-0.86842 23:0.387268 24:-0.949279 25:0.926959 26:-0.953456 27:0.769602 28:-0.938563 29:0.330619 30:-0.968393 31:-0.0892278 32:-0.970362 33:-0.568642 34:-0.964173 
-0.002369317407360719 1:-0.869043 2:-0.986052 3:-0.977494 4:-0.104466 5:-0.209414 6:-0.997343 7:-0.236475 8:-0.979009 9:-0.758423 10:0.339663 11:-0.0387843 12:-0.893364 13:0.031625 14:-0.848458 15:-0.29049 16:-0.869998 17:0.321493 18:-0.870002 19:-0.28405 20:-0.947669 21:0.321947 22:-0.853815 23:-0.110546 24:-0.949633 25:0.279743 26:-0.949823 27:0.206427 28:-0.925495 29:0.180509 30:-0.954019 31:-0.138432 32:-0.970104 33:-0.597195 34:-0.962686 
-0.0005128371695637401 1:-0.943233 2:-0.946074 3:-0.916564 4:-0.0993265 5:-0.0841319 6:-0.998569 7:-0.237408 8:-0.425444 9:-0.543317 10:0.611152 11:-0.0554151 12:-0.855756 13:-0.100648 14:-0.824701 15:-0.258382 16:-0.614637 17:0.340517 18:-0.592381 19:-0.282228 20:-0.59857 21:0.327788 22:0.203904 23:-0.340873 24:-0.610448 25:0.345816 26:-0.598066 27:0.225592 28:-0.443751 29:0.193402 30:-0.60936 31:0.19749 32:-0.640927 33:-0.278118 34:-0.565059 
-0.0006600902836150224 1:-0.95054 2:-0.896609 3:-0.840141 4:-0.0962981 5:0.0378515 6:-0.99861 7:-0.2326 8:0.032035 9:-0.49118 10:0.265905 11:0.0278435 12:-0.836533 13:1 14:-0.829161 15:-0.224004 16:-0.616778 17:0.401752 18:-0.598557 19:-0.177729 20:-0.594337 21:-0.58162 22:0.164029 23:0.272777 24:-0.61108 25:0.644888 26:-0.595628 27:0.0415669 28:-0.440665 29:0.63024 30:-0.600173 31:0.596141 32:-0.647076 33:0.322806 34:-0.564482 
-0.00897961082826406 1:-0.999759 2:-0.746174 3:-0.716932 4:-0.12902 5:-0.150104 6:-0.997717 7:-0.238949 8:-0.969346 9:-0.999984 10:0.362098 11:-0.0387333 12:-0.999877 13:-0.0994861 14:-0.999879 15:-1 16:-1 17:-1 18:-1 19:-1 20:-1 21:-1 22:-1 23:-1 24:-1 25:-1 26:-1 27:-1 28:-1 29:-1 30:-1 31:-1 32:-1 33:-1 34:-1 
-0.0007978204485120099 1:-0.814926 2:-0.993828 3:-0.986954 4:-0.101345 5:-0.230601 6:-0.997926 7:-0.227638 8:-0.993437 9:-0.76527 10:0.468632 11:-0.0402462 12:-0.816665 13:-0.0509785 14:-0.772561 15:-0.106286 16:-0.980546 17:0.614897 18:-0.963266 19:-0.126594 20:-0.961492 21:0.580963 22:-0.906515 23:0.128957 24:-0.995771 25:0.559957 26:-0.995181 27:0.484068 28:-0.992004 29:0.185472 30:-0.994043 31:-0.178967 32:-0.99571 33:-0.642642 34:-0.995809 
-0.00154599830100841 1:-0.968124 2:-0.945127 3:-0.998259 4:-0.105486 5:-0.237392 6:-0.920391 7:-0.0589004 8:-0.591448 9:-0.979957 10:0.350992 11:-0.0250136 12:-0.963751 13:-0.083354 14:-0.963327 15:-0.85895 16:-0.945141 17:-0.732798 18:-0.923323 19:-0.791153 20:-0.818751 21:-0.846699 22:-0.745402 23:-0.838905 24:-0.906525 25:-0.489288 26:-0.914142 27:-0.659354 28:-0.866361 29:-0.594886 30:-0.920693 31:-0.469377 32:-0.908497 33:-0.541948 34:-0.887608 
-0.001083785400388103 1:-0.96981 2:-0.956142 3:-0.957921 4:-0.124827 5:-0.132496 6:-0.988079 7:-0.290656 8:-0.678896 9:-0.994606 10:0.390434 11:-0.0359807 12:-0.982783 13:-0.0989394 14:-0.982499 15:-0.88438 16:-0.945361 17:-0.816627 18:-0.977143 19:-0.90024 20:-0.978299 21:-0.993398 22:-0.833664 23:-0.993265 24:-0.90886 25:-0.995391 26:-0.908067 27:-0.966796 28:-0.859006 29:-0.991592 30:-0.903343 31:-0.993978 32:-0.914435 33:-0.993149 34:-0.894011 
-0.0008480110813449682 1:-0.756474 2:-0.993828 3:-0.985409 4:-0.0887654 5:-0.21628 6:-0.997943 7:-0.227553 8:-0.992326 9:-0.660105 10:0.0291928 11:-0.112245 12:-0.639365 13:0.0233825 14:-0.580637 15:0.0940849 16:-0.953788 17:1 18:-0.953669 19:0.0664259 20:-0.952166 21:0.90852 22:-0.865148 23:0.362751 24:-0.950371 25:0.966963 26:-0.952564 27:0.792613 28:-0.939953 29:0.280676 30:-0.968967 31:-0.130038 32:-0.969947 33:-0.59337 34:-0.963308 
-0.0006986313585074511 1:-0.807861 2:-0.980161 3:-0.977592 4:-0.0829294 5:-0.243432 6:-0.995841 7:-0.240905 8:-0.940359 9:-0.639949 10:0.469444 11:-0.0505928 12:-0.88953 13:0.0589613 14:-0.849348 15:-0.453562 16:-0.82967 17:-0.0468418 18:-0.81917 19:-0.453494 20:-0.82229 21:-0.0402864 22:-0.481592 23:-0.322229 24:-0.823455 25:-0.0381684 26:-0.823815 27:-0.0832 28:-0.765557 29:-0.123218 30:-0.823398 31:-0.132651 32:-0.829189 33:-0.621369 34:-0.998571 
-0.0005787468744828383 1:-0.947569 2:-0.959787 3:-0.930026 4:-0.106047 5:-0.367933 6:-0.998128 7:-0.209686 8:-0.40763 9:-0.73091 10:0.509598 11:0.0278865 12:-0.878807 13:-0.252432 14:-0.856366 15:-0.011145 16:-0.982922 17:0.900571 18:-0.979515 19:-0.228156 20:-0.981259 21:0.825917 22:-0.948729 23:0.302565 24:-0.981256 25:0.717529 26:-0.98222 27:0.684139 28:-0.973646 29:0.747653 30:-0.984725 31:0.495162 32:-0.998676 33:-0.0869428 34:-0.53779 
-0.005427183569291142 1:-0.997109 2:-0.934655 3:-0.925377 4:-0.0786445 5:-0.19568 6:-0.997927 7:-0.225149 8:-0.982398 9:-0.999666 10:0.361735 11:-0.0387426 12:-0.9997 13:-0.0997365 14:-0.999652 15:-0.983465 16:-0.997219 17:-1 18:-1 19:-1 20:-1 21:-0.802775 22:-0.947567 23:-1 24:-1 25:-1 26:-1 27:-0.801369 28:-0.96086 29:-1 30:-1 31:-1 32:-1 33:-0.89799 34:-0.983818 
-0.003196409354384226 1:-0.999438 2:-0.547491 3:-0.499312 4:-0.139751 5:0.112006 6:-0.99776 7:-0.25836 8:-0.639241 9:-0.999972 10:0.362187 11:-0.038757 12:-0.999276 13:-0.0999063 14:-0.999303 15:-1 16:-1 17:-1 18:-1 19:-1 20:-1 21:-1 22:-1 23:-1 24:-1 25:-1 26:-1 27:-1 28:-1 29:-1 30:-1 31:-1 32:-1 33:-0.900881 34:-0.989679 
-0.0005468590930878794 1:-0.98338 2:-0.441159 3:-0.351077 4:-0.104346 5:0.131213 6:-0.9993 7:-0.235479 8:-0.678467 9:-0.953578 10:0.382732 11:-0.0397708 12:-0.980804 13:-0.082098 14:-0.972277 15:-0.795429 16:-0.676714 17:-1 18:-1 19:-1 20:-1 21:-0.619003 22:-0.0398834 23:-1 24:-1 25:-1 26:-1 27:-0.617116 28:-0.537766 29:-1 30:-1 31:-1 32:-1 33:-0.613294 34:-0.585342 
-0.002598000782284597 1:-0.955036 2:-0.990778 3:-0.99908 4:-0.0909672 5:-0.213401 6:-0.987321 7:-0.179609 8:-0.77926 9:-0.997501 10:0.36066 11:-0.038877 12:-0.992063 13:-0.0962885 14:-0.991904 15:-0.707259 16:-0.930969 17:-0.813659 18:-0.981188 19:-0.71849 20:-0.939655 21:-0.484182 22:-0.779728 23:-0.723758 24:-0.928204 25:-0.494158 26:-0.944177 27:-0.556892 28:-0.921242 29:-0.89397 30:-0.986195 31:-0.892106 32:-0.989768 33:-0.919256 34:-0.982498 
-0.0006320975422750008 1:-0.99189 2:-0.95972 3:-0.955928 4:-0.116906 5:-0.394589 6:-0.993938 7:-0.153136 8:0.0634069 9:-0.999359 10:0.362775 11:-0.0388609 12:-0.998472 13:-0.0993153 14:-0.99841 15:-0.962897 16:-0.984033 17:-0.944971 18:-0.995191 19:-0.938303 20:-0.989398 21:-0.898165 22:-0.983997 23:-0.582016 24:-0.959893 25:-0.930426 26:-0.99533 27:-0.917683 28:-0.993507 29:-0.915127 30:-0.99471 31:-0.93034 32:-0.996017 33:-0.922202 34:-0.99167 
-0.002367964052715777 1:-0.999759 2:-0.84847 3:-0.827642 4:-0.0317633 5:-0.330244 6:-0.98688 7:-0.266853 8:-0.894382 9:-0.999931 10:0.362094 11:-0.0387319 12:-0.999907 13:-0.0994844 14:-0.999896 15:-0.809904 16:-0.99897 17:-1 18:-1 19:-1 20:-1 21:-1 22:-1 23:-1 24:-1 25:-1 26:-1 27:-1 28:-1 29:-1 30:-1 31:-1 32:-1 33:-0.987 34:-0.984951 
-0.0006216841510123805 1:-0.995825 2:-0.527845 3:-0.715397 4:0.317671 5:0.0347919 6:-0.661137 7:0.115669 8:-0.616907 9:-0.983348 10:0.361939 11:-0.038916 12:-0.991265 13:-0.0997093 14:-0.988047 15:-0.302042 16:-0.992469 17:-1 18:-1 19:-1 20:-1 21:0.964111 22:-0.848858 23:-1 24:-1 25:-1 26:-1 27:0.804161 28:-0.926307 29:-1 30:-1 31:-0.961118 32:-0.980612 33:0.738846 34:-0.923082 
-0.002703454188294083 1:-0.998796 2:0.0154049 3:-0.851038 4:-0.655243 5:-0.333368 6:0.193531 7:0.151274 8:-0.869688 9:-0.993369 10:0.362847 11:-0.0387359 12:-0.997766 13:-0.0993832 14:-0.996375 15:-0.992033 16:-0.516917 17:-1 18:-1 19:-1 20:-1 21:-1 22:-1 23:-0.993201 24:-0.613 25:-1 26:-1 27:-1 28:-1 29:-1 30:-1 31:-1 32:-1 33:-0.990754 34:-0.436358 
-0.001121465055606341 1:-0.998956 2:0.643049 3:-0.98968 4:0.0919928 5:-0.258263 6:0.998643 7:-0.834563 8:-0.805973 9:-0.999992 10:0.362155 11:-0.0387346 12:-0.999292 13:-0.0994886 14:-0.999323 15:-0.84683 16:-0.995757 17:-0.929082 18:-0.997233 19:-0.922802 20:-0.997502 21:-1 22:-1 23:-0.952778 24:-0.999112 25:-1 26:-1 27:-1 28:-1 29:-1 30:-1 31:-1 32:-1 33:-1 34:-1 
-0.002267597343129251 1:-0.999518 2:-0.681139 3:-0.744341 4:-0.322483 5:-0.319024 6:-0.886581 7:-0.153028 8:-0.94315 9:-0.999961 10:0.36216 11:-0.0387453 12:-0.999937 13:-0.0994819 14:-0.999931 15:-0.908102 16:-0.958241 17:-1 18:-1 19:-1 20:-1 21:-1 22:-1 23:-1 24:-1 25:-1 26:-1 27:-1 28:-1 29:-1 30:-1 31:-1 32:-1 33:-1 34:-1 
-0.0005722334614399749 1:-0.999839 2:-0.358714 3:-0.486243 4:-0.530297 5:-1 6:-0.793283 7:0.372882 8:0.876164 9:-1 10:0.362082 11:-0.0387332 12:-0.999992 13:-0.0994889 14:-0.999993 15:-1 16:-1 17:-1 18:-1 19:-1 20:-1 21:-1 22:-1 23:-1 24:-1 25:-1 26:-1 27:-1 28:-1 29:-1 30:-1 31:-1 32:-1 33:-1 34:-1 
-0.00059253407397869 1:-0.997672 2:-0.352252 3:-0.540627 4:0.430553 5:0.235262 6:-0.660954 7:0.252566 8:-0.253721 9:-0.990411 10:0.361126 11:-0.0389731 12:-0.996983 13:-0.0993893 14:-0.995129 15:-0.849145 16:-0.964398 17:-1 18:-1 19:-1 20:-1 21:-0.410291 22:-0.75298 23:-1 24:-1 25:-1 26:-1 27:0.405155 28:-0.884587 29:-1 30:-1 31:-1 32:-1 33:0.402268 34:-0.928981 
-0.001029390808362399 1:-0.998314 2:-0.347189 3:-0.850424 4:-0.527914 5:-0.436411 6:-0.291649 7:0.338516 8:-0.51247 9:-0.994496 10:0.363038 11:-0.0387265 12:-0.997575 13:-0.099495 14:-0.996448 15:-0.997039 16:-0.807156 17:-1 18:-1 19:-1 20:-1 21:-0.98622 22:-0.0747207 23:-1 24:-1 25:-1 26:-1 27:-0.984434 28:-0.492444 29:-1 30:-1 31:-1 32:-1 33:-0.991065 34:-0.5677 
-0.004790579592189809 1:-0.998956 2:-0.348099 3:-0.839678 4:0.329705 5:-0.422959 6:-0.365375 7:-0.717967 8:-0.591105 9:-0.999165 10:0.361939 11:-0.0390773 12:-0.998862 13:-0.0972547 14:-0.998809 15:-0.998489 16:-0.941983 17:-1 18:-1 19:-1 20:-1 21:-0.764573 22:-0.678425 23:-1 24:-1 25:-1 26:-1 27:-0.693259 28:-0.860065 29:-1 30:-1 31:-1 32:-1 33:-0.67581 34:-0.911803 
-0.01793131332794709 1:-0.998956 2:-0.0978802 3:-0.822872 4:0.448512 5:-0.276993 6:-0.0575821 7:-0.381959 8:-0.945692 9:-0.998321 10:0.361795 11:-0.0387762 12:-0.998215 13:-0.100914 14:-0.998136 15:-0.475993 16:-0.879167 17:-1 18:-1 19:-1 20:-1 21:-1 22:-1 23:-0.881461 24:-0.961844 25:-1 26:-1 27:-1 28:-1 29:-1 30:-1 31:-1 32:-1 33:-0.85101 34:-0.866686 
-0.0007804240472777413 1:-0.999679 2:-0.123687 3:-0.985932 4:0.0651572 5:-0.24498 6:0.0555459 7:-0.459846 8:-0.946984 9:-0.99973 10:0.362034 11:-0.0387312 12:-0.999739 13:-0.0995093 14:-0.999691 15:-0.550676 16:-0.991129 17:-1 18:-1 19:-1 20:-1 21:-1 22:-1 23:-1 24:-1 25:-1 26:-1 27:-1 28:-1 29:-1 30:-1 31:-1 32:-1 33:-1 34:-1 
-0.001143095956827433 1:-0.999759 2:0.771111 3:0.694332 4:0.909657 5:0.566591 6:-0.665355 7:0.199868 8:-0.406786 9:-0.999654 10:0.362034 11:-0.0388004 12:-0.99928 13:-0.0994617 14:-0.999244 15:-1 16:-1 17:-1 18:-1 19:-1 20:-1 21:-1 22:-1 23:-0.977543 24:-0.956048 25:-1 26:-1 27:-1 28:-1 29:-1 30:-1 31:-1 32:-1 33:-0.470388 34:-0.977641 
-0.001155559116346128 1:-0.996146 2:-0.52696 3:-0.718075 4:0.315465 5:0.0326993 6:-0.661721 7:0.114175 8:-0.619601 9:-0.985657 10:0.368965 11:-0.038873 12:-0.992333 13:-0.100044 14:-0.989575 15:-0.302677 16:-0.993793 17:-1 18:-1 19:-1 20:-1 21:0.196647 22:-0.910116 23:-1 24:-1 25:-1 26:-1 27:0.062271 28:-0.941563 29:-1 30:-1 31:-0.945956 32:-0.98595 33:0.736034 34:-0.916138 
-0.0008976779606572061 1:-0.998394 2:-0.206479 3:-0.34218 4:0.536024 5:0.138206 6:-0.658564 7:0.0887964 8:-0.668207 9:-0.992303 10:0.363229 11:-0.0386929 12:-0.996753 13:-0.0998995 14:-0.995305 15:-0.394086 16:-0.905494 17:-1 18:-1 19:-1 20:-1 21:0.432593 22:-0.69122 23:-1 24:-1 25:-1 26:-1 27:-0.396968 28:-0.917428 29:-1 30:-1 31:-1 32:-1 33:-0.558982 34:-0.997883 
-0.001492875263966607 1:-0.999438 2:0.306026 3:-0.804425 4:0.613088 5:-0.251879 6:0.444651 7:-0.324823 8:-0.94286 9:-0.998801 10:0.362225 11:-0.0386257 12:-0.999156 13:-0.0995372 14:-0.999166 15:-0.702074 16:-0.78768 17:-1 18:-1 19:-1 20:-1 21:-1 22:-1 23:-1 24:-1 25:-1 26:-1 27:-1 28:-1 29:-1 30:-1 31:-1 32:-1 33:-0.363894 34:-0.912205 
-0.001418960136240674 1:-0.817415 2:-0.997875 3:-0.999373 4:-0.0935515 5:-0.223763 6:-0.996665 7:-0.230945 8:-0.997146 9:-0.95028 10:0.398794 11:-0.0669802 12:-0.957678 13:-0.250717 14:-0.951508 15:-0.860404 16:-0.98437 17:-0.751922 18:-0.986273 19:-0.858244 20:-0.987422 21:-0.737949 22:-0.957127 23:-0.611188 24:-0.978731 25:-0.360329 26:-0.936973 27:-0.48495 28:-0.906095 29:-0.80731 30:-0.915746 31:-0.822354 32:-0.946613 33:-0.836323 34:-0.926201 
-0.0007585070379662231 1:-0.940182 2:-0.95891 3:-0.986884 4:-0.127968 5:-0.298622 6:-0.950774 7:-0.0476652 8:-0.224618 9:-0.91484 10:0.401399 11:-0.0340561 12:-0.938255 13:-0.0692964 14:-0.938705 15:-0.817072 16:-0.967623 17:-0.430405 18:-0.814305 19:-0.699105 20:-0.591871 21:-0.725156 22:-0.0993364 23:-0.603779 24:-0.598941 25:-0.0765766 26:-0.639582 27:-0.420953 28:-0.429042 29:-0.985004 30:-0.881387 31:-0.999484 32:-0.987939 33:-0.986324 34:-0.924445 
-0.000726388229724706 1:-0.587057 2:-0.99744 3:-0.995085 4:-0.0944674 5:-0.223395 6:-0.999803 7:-0.230801 8:-0.984805 9:-0.686344 10:0.495257 11:-0.0706238 12:-0.636836 13:-0.12313 14:-0.619856 15:-0.748212 16:-0.581986 17:-0.529488 18:-0.563659 19:-0.801731 20:-0.626323 21:-0.598616 22:0.11646 23:-0.715455 24:-0.624484 25:-0.539148 26:-0.604153 27:-0.44853 28:-0.550256 29:-0.475433 30:-0.68401 31:-0.500652 32:-0.696075 33:-0.804709 34:-0.695007 
-0.0006051045594179794 1:-0.486692 2:-0.993828 3:-0.992039 4:-0.0974918 5:-0.225351 6:-0.999325 7:-0.230367 8:-0.998807 9:-0.470002 10:0.333138 11:-0.080423 12:-0.546513 13:-0.0957707 14:-0.449698 15:-0.89196 16:-0.60307 17:-0.843948 18:-0.5933 19:-0.875866 20:-0.564701 21:-0.835462 22:0.320918 23:-0.89048 24:-0.556462 25:-0.898068 26:-0.551476 27:-0.860463 28:-0.380803 29:-0.878132 30:-0.551461 31:-0.819449 32:-0.579144 33:-0.91817 34:-0.48355 
-0.0008496162291222742 1:-0.80208 2:-0.991618 3:-0.993531 4:-0.0860704 5:-0.224092 6:-0.992264 7:-0.231336 8:-0.984712 9:-0.790318 10:0.299797 11:0.0451436 12:-0.916402 13:-0.144657 14:-0.890935 15:-0.575294 16:-0.816164 17:-0.266273 18:-0.818479 19:-0.595548 20:-0.814393 21:-0.279431 22:-0.443974 23:-0.712779 24:-0.856947 25:-0.604545 26:-0.855721 27:-0.689792 28:-0.798405 29:-0.972552 30:-0.821434 31:-0.936562 32:-0.824196 33:-0.973431 34:-0.850047 
-0.0007010020035911335 1:-0.625115 2:-0.998522 3:-0.995922 4:-0.0953214 5:-0.224457 6:-0.999896 7:-0.230821 8:-0.973536 9:-0.715147 10:0.496428 11:-0.0739462 12:-0.768676 13:-0.0365919 14:-0.773419 15:-0.871506 16:-0.743861 17:-0.489934 18:-0.731668 19:-0.69211 20:-0.764504 21:-0.4028 22:-0.324518 23:-0.577109 24:-0.762417 25:-0.434908 26:-0.760068 27:-0.449582 28:-0.637711 29:-0.46426 30:-0.734155 31:-0.521411 32:-0.748583 33:-0.866717 34:-0.972911 
-0.0009152747488331281 1:-0.810831 2:-0.997875 3:-0.9994 4:-0.0935743 5:-0.223792 6:-0.996643 7:-0.231044 8:-0.997072 9:-0.943389 10:0.428156 11:-0.0396646 12:-0.958524 13:-0.0784146 14:-0.950948 15:-0.860158 16:-0.974194 17:-0.748815 18:-0.984426 19:-0.860984 20:-0.988945 21:-0.745994 22:-0.952778 23:-0.61026 24:-0.979593 25:-0.349143 26:-0.932377 27:-0.484927 28:-0.900169 29:-0.539737 30:-0.919893 31:-0.534366 32:-0.957371 33:-0.558348 34:-0.934689 
-0.0006432973854368917 1:-0.67297 2:-0.992316 3:-0.992819 4:-0.0870646 5:-0.223855 6:-0.99428 7:-0.230984 8:-0.981078 9:-0.504834 10:0.479483 11:-0.0197882 12:-0.828328 13:-0.133184 14:-0.761401 15:-0.580508 16:-0.715882 17:-0.264496 18:-0.710408 19:-0.59161 20:-0.701285 21:-0.27329 22:-0.122571 23:-0.718476 24:-0.753859 25:-0.608777 26:-0.760278 27:-0.704563 28:-0.726585 29:-0.967232 30:-0.771727 31:-0.960973 32:-0.790384 33:-0.974328 34:-0.826016 
-0.0007821468321649871 1:0.520173 2:-0.998881 3:-0.996904 4:-0.0950051 5:-0.223849 6:-0.999908 7:-0.23086 8:-0.992484 9:-0.30629 10:0.165131 11:-1 12:0.962845 13:0.302597 14:0.962173 15:-0.993355 16:-0.910344 17:-0.650357 18:-0.330678 19:-0.7892 20:-0.332126 21:-0.652667 22:0.99654 23:-0.769281 24:-0.327683 25:-0.721478 26:-0.353336 27:-0.869962 28:-0.133176 29:-0.906095 30:-0.373783 31:-0.909677 32:-0.420606 33:-0.915131 34:-0.296292 
-0.003005975550517192 1:-0.817817 2:-0.997914 3:-0.999384 4:-0.0935644 5:-0.223733 6:-0.996668 7:-0.230845 8:-0.99713 9:-0.950331 10:0.515872 11:-0.0178514 12:-0.958474 13:0.020813 14:-0.952292 15:-0.860628 16:-0.984541 17:-0.750546 18:-0.986339 19:-0.857058 20:-0.984864 21:-0.748251 22:-0.959635 23:-0.603369 24:-0.979598 25:-0.357937 26:-0.936867 27:-0.484378 28:-0.907462 29:-0.807999 30:-0.915699 31:-0.823336 32:-0.954459 33:-0.840152 34:-0.925683 
-3.400371450162726 1:-0.835802 2:-0.999496 3:-0.998869 4:-0.0950921 5:-0.224231 6:-0.99999 7:-0.230876 8:-0.999234 9:-0.993455 10:0.359596 11:-0.0382262 12:-0.99437 13:-0.0996006 14:-0.993564 15:-0.965649 16:-0.965083 17:-0.937316 18:-0.970124 19:-0.912432 20:-0.972669 21:-0.941715 22:-0.915991 23:-0.960711 24:-0.970237 25:-0.958659 26:-0.970245 27:-0.922035 28:-0.949815 29:-0.897747 30:-0.953732 31:-0.873112 32:-0.955228 33:-0.925389 34:-0.953892 
-0.0009561259928196991 1:-0.973423 2:-0.998275 3:-0.999803 4:-0.0961715 5:-0.22239 6:-0.995533 7:-0.240431 8:-0.977955 9:-0.997262 10:0.359477 11:-0.0385596 12:-0.997637 13:-0.0996766 14:-0.997141 15:-0.996907 16:-0.893424 17:-0.995354 18:-0.898241 19:-0.995461 20:-0.862869 21:-0.997671 22:-0.735726 23:-0.99862 24:-0.869708 25:-0.996446 26:-0.927697 27:-0.985585 28:-0.827193 29:-0.970903 30:-0.847885 31:-0.992 32:-0.894046 33:-0.982228 34:-0.810196 
-0.001350150010117412 1:-0.857481 2:-0.993528 3:-0.992911 4:-0.101899 5:-0.22816 6:-0.996227 7:-0.226876 8:-0.994809 9:-0.95849 10:0.262595 11:-0.040068 12:-0.967516 13:-0.097146 14:-0.960206 15:-0.98356 16:-0.94305 17:-0.899669 18:-0.907218 19:-0.901867 20:-0.871376 21:-0.946885 22:-0.640031 23:-0.973898 24:-0.876399 25:-0.969809 26:-0.878437 27:-0.931372 28:-0.821836 29:-0.960039 30:-0.878945 31:-0.948604 32:-0.881735 33:-0.966289 34:-0.86065 
-0.001854734798543124 1:-0.958168 2:-0.993821 3:-0.992992 4:-0.0987669 5:-0.211671 6:-0.998934 7:-0.236617 8:-0.965544 9:-0.9976 10:0.357003 11:-0.0377078 12:-0.996621 13:-0.0959805 14:-0.996477 15:-0.914227 16:-0.977327 17:-0.832231 18:-0.977637 19:-0.953905 20:-0.970527 21:-0.890274 22:-0.903557 23:-0.955711 24:-0.999303 25:-1 26:-1 27:-0.889855 28:-0.945988 29:-0.885744 30:-0.957108 31:-0.904416 32:-0.960413 33:-0.899535 34:-0.953538 
-0.03002588056042454 1:0.445743 2:-0.998523 3:-0.998906 4:-0.0952846 5:-0.223736 6:-0.997645 7:-0.230847 8:-0.999592 9:-0.465603 10:0.392066 11:-0.00870949 12:0.736545 13:-0.109111 14:0.774445 15:0.0855472 16:-0.979499 17:0.997499 18:-0.976341 19:0.100795 20:-0.980605 21:0.998519 22:-0.936635 23:0.42228 24:-0.974516 25:0.95395 26:-0.980959 27:0.843747 28:-0.970608 29:0.837435 30:-0.975864 31:0.855738 32:-0.982559 33:0.709744 34:-0.98043 
-0.05098064284025645 1:-0.340078 2:-0.998954 3:-0.998687 4:-0.0969106 5:-0.223719 6:-0.998192 7:-0.230879 8:-0.99996 9:-0.781768 10:0.0682474 11:-0.0378932 12:-0.769198 13:-0.0860576 14:-0.730742 15:-0.835696 16:-0.995558 17:-0.353896 18:-0.995317 19:-0.459954 20:-0.985708 21:-0.00783988 22:-0.940619 23:-0.297964 24:-0.9867 25:-0.0350912 26:-0.984359 27:-0.0845837 28:-0.976661 29:-0.10174 30:-0.983918 31:-0.415248 32:-0.995317 33:-0.753049 34:-0.997094 
-0.02201194943123452 1:-0.488779 2:-0.998108 3:-0.998269 4:-0.0925397 5:-0.223725 6:-0.997413 7:-0.230836 8:-0.975024 9:-0.594948 10:0.370149 11:-0.0334002 12:-0.847483 13:-0.184233 14:-0.838996 15:-0.664761 16:-0.846166 17:-0.349292 18:-0.81978 19:-0.642435 20:-0.817743 21:-0.341538 22:-0.445966 23:-0.533858 24:-0.817031 25:-0.35778 26:-0.81597 27:-0.394356 28:-0.747395 29:-0.398957 30:-0.81702 31:-0.364121 32:-0.829643 33:-0.452509 34:-0.812212 
-0.05969787186791575 1:-0.75824 2:-0.993828 3:-0.985539 4:-0.0887896 5:-0.21655 6:-0.997945 7:-0.227658 8:-0.992795 9:-0.665597 10:0.768012 11:-0.037572 12:-0.647358 13:0.115518 14:-0.589431 15:0.108054 16:-0.954055 17:0.961914 18:-0.954648 19:0.0838236 20:-0.951727 21:0.936238 22:-0.86842 23:0.387268 24:-0.949279 25:0.926959 26:-0.953456 27:0.769602 28:-0.938563 29:0.330619 30:-0.968393 31:-0.0892278 32:-0.970362 33:-0.568642 34:-0.964173 
-0.05316745236688047 1:-0.80778 2:-0.980218 3:-0.977608 4:-0.0829538 5:-0.243185 6:-0.995857 7:-0.240766 8:-0.941094 9:-0.642608 10:0.18187 11:-0.0729785 12:-0.8898 13:-0.208858 14:-0.850161 15:-0.474104 16:-0.82993 17:-0.0271438 18:-0.821263 19:-0.448206 20:-0.818594 21:-0.0232135 22:-0.476431 23:-0.309633 24:-0.824422 25:-0.0748165 26:-0.827583 27:-0.09525 28:-0.75649 29:-0.155737 30:-0.824241 31:-0.121884 32:-0.836242 33:-0.618697 34:-0.998141 
-0.03821664970603213 1:-0.869043 2:-0.986052 3:-0.977494 4:-0.104466 5:-0.209414 6:-0.997343 7:-0.236475 8:-0.979009 9:-0.758423 10:0.339663 11:-0.0387843 12:-0.893364 13:0.031625 14:-0.848458 15:-0.29049 16:-0.869998 17:0.321493 18:-0.870002 19:-0.28405 20:-0.947669 21:0.321947 22:-0.853815 23:-0.110546 24:-0.949633 25:0.279743 26:-0.949823 27:0.206427 28:-0.925495 29:0.180509 30:-0.954019 31:-0.138432 32:-0.970104 33:-0.597195 34:-0.962686 
-0.03450774382367844 1:-0.943233 2:-0.946074 3:-0.916564 4:-0.0993265 5:-0.0841319 6:-0.998569 7:-0.237408 8:-0.425444 9:-0.543317 10:0.611152 11:-0.0554151 12:-0.855756 13:-0.100648 14:-0.824701 15:-0.258382 16:-0.614637 17:0.340517 18:-0.592381 19:-0.282228 20:-0.59857 21:0.327788 22:0.203904 23:-0.340873 24:-0.610448 25:0.345816 26:-0.598066 27:0.225592 28:-0.443751 29:0.193402 30:-0.60936 31:0.19749 32:-0.640927 33:-0.278118 34:-0.565059 
-0.06027867533597148 1:-0.948854 2:-0.959563 3:-0.929165 4:-0.10601 5:-0.370001 6:-0.998134 7:-0.209733 8:-0.399048 9:-0.733909 10:0.411031 11:0.114075 12:-0.883547 13:0.164466 14:-0.861077 15:0.0114986 16:-0.98141 17:0.799265 18:-0.97986 19:-0.252443 20:-0.980225 21:0.728572 22:-0.940839 23:0.243597 24:-0.980846 25:0.833457 26:-0.981412 27:0.680928 28:-0.973224 29:0.700856 30:-0.98265 31:0.599321 32:-0.998227 33:-0.0977455 34:-0.539153 
-0.008403958345174125 1:-0.965876 2:-0.948019 3:-0.998299 4:-0.105349 5:-0.236804 6:-0.92041 7:-0.0641203 8:-0.615026 9:-0.978879 10:0.357302 11:-0.0724946 12:-0.961979 13:-0.116493 14:-0.961565 15:-0.843131 16:-0.945381 17:-0.691701 18:-0.926152 19:-0.743034 20:-0.790352 21:-0.802867 22:-0.676335 23:-0.810327 24:-0.907782 25:-0.669356 26:-0.914183 27:-0.621638 28:-0.874457 29:-0.552912 30:-0.924426 31:-0.453071 32:-0.906797 33:-0.556904 34:-0.878158 
-0.07334003033061945 1:-0.97527 2:-0.92843 3:-0.938197 4:-0.0397973 5:-0.33301 6:-0.97167 7:-0.322155 8:-0.685979 9:-0.991595 10:0.341384 11:-0.0400702 12:-0.973227 13:-0.0972924 14:-0.972556 15:-0.774837 16:-0.994515 17:-0.562209 18:-0.997245 19:-0.782885 20:-0.998592 21:-0.558116 22:-0.993783 23:-0.761641 24:-0.998842 25:-0.609532 26:-0.996038 27:-0.581254 28:-0.997975 29:-0.593412 30:-0.997631 31:-0.588897 32:-0.996109 33:-0.64424 34:-0.993427 
-0.8687340449660832 1:-0.989161 2:-0.954523 3:-0.99954 4:-0.0887323 5:-0.224028 6:-0.939936 7:-0.235331 8:-0.998484 9:-0.99885 10:0.361473 11:-0.0387305 12:-0.998869 13:-0.0996399 14:-0.998738 15:-0.994002 16:-0.997875 17:-1 18:-1 19:-0.896577 20:-0.955494 21:-1 22:-1 23:-0.827287 24:-0.978371 25:-1 26:-1 27:-1 28:-1 29:-0.807909 30:-0.985667 31:-1 32:-1 33:-0.849048 34:-0.989358 
-0.3228058230607198 1:-0.996949 2:-0.93791 3:-0.925462 4:-0.0783756 5:-0.186501 6:-0.997841 7:-0.223153 8:-0.969146 9:-0.999396 10:0.362145 11:-0.0387279 12:-0.999754 13:-0.0993387 14:-0.999651 15:-0.997004 16:-0.99615 17:-1 18:-1 19:-1 20:-1 21:-0.804561 22:-0.931727 23:-1 24:-1 25:-1 26:-1 27:-0.6774 28:-0.95933 29:-1 30:-1 31:-1 32:-1 33:-0.942655 34:-0.993003 
-0.05540311501882374 1:-0.905095 2:-0.89663 3:-0.874278 4:-0.0960326 5:-0.3979 6:-0.999263 7:-0.22972 8:-0.541613 9:-0.621823 10:0.45453 11:-0.063506 12:-0.873193 13:0.0365465 14:-0.832937 15:-0.748258 16:-0.675978 17:-0.547425 18:-0.645393 19:-0.740204 20:-0.65051 21:-0.658115 22:0.272877 23:-0.988672 24:-0.73853 25:-0.563456 26:-0.6518 27:-0.573069 28:-0.519911 29:-0.697166 30:-0.646542 31:-0.569004 32:-0.668283 33:-0.456748 34:-0.474662 
-0.06806730390371302 1:-0.95054 2:-0.896609 3:-0.840141 4:-0.0962981 5:0.0378515 6:-0.99861 7:-0.2326 8:0.032035 9:-0.49118 10:0.265905 11:0.0278435 12:-0.836533 13:1 14:-0.829161 15:-0.224004 16:-0.616778 17:0.401752 18:-0.598557 19:-0.177729 20:-0.594337 21:-0.58162 22:0.164029 23:0.272777 24:-0.61108 25:0.644888 26:-0.595628 27:0.0415669 28:-0.440665 29:0.63024 30:-0.600173 31:0.596141 32:-0.647076 33:0.322806 34:-0.564482 
-0.0217138688244753 1:-0.98627 2:-0.848498 3:-0.811745 4:-0.0582733 5:-0.431294 6:-0.995836 7:-0.268348 8:-0.622135 9:-0.992598 10:0.357135 11:-0.0409051 12:-0.98694 13:-0.0986435 14:-0.986714 15:-0.963678 16:-0.930949 17:-0.986722 18:-0.978954 19:-1 20:-1 21:-0.485834 22:-0.70219 23:-0.709165 24:-0.913466 25:-1 26:-1 27:-0.481976 28:-0.886054 29:-1 30:-1 31:-0.711499 32:-0.914882 33:-0.630385 34:-0.894134 
-0.003053713722677854 1:-0.997672 2:-0.887613 3:-0.998234 4:-0.0756911 5:-0.187953 6:-0.851351 7:0.216251 8:0.432283 9:-0.998464 10:0.362751 11:-0.0386976 12:-0.99902 13:-0.099544 14:-0.998719 15:-0.996846 16:-0.910922 17:-1 18:-1 19:-1 20:-1 21:-0.993246 22:-0.734388 23:-0.997855 24:-0.947383 25:-1 26:-1 27:-0.996259 28:-0.944443 29:-0.998322 30:-0.946632 31:-1 32:-1 33:-0.991167 34:-0.696269 
-0.03266948522731312 1:-0.998153 2:-0.856711 3:-0.849834 4:-0.0668125 5:-0.656958 6:-0.997001 7:-0.305925 8:0.999346 9:-1 10:0.36209 11:-0.0387334 12:-0.99994 13:-0.099489 14:-0.999943 15:-1 16:-1 17:-1 18:-1 19:-0.997349 20:-0.987855 21:-0.997414 22:-0.982003 23:-1 24:-1 25:-0.987432 26:-0.969605 27:-1 28:-1 29:-0.997226 30:-0.993626 31:-1 32:-1 33:-0.994704 34:-0.986025 
-0.04620043976090667 1:-0.999759 2:-0.810124 3:-0.79336 4:-0.0697261 5:0.151076 6:-0.998242 7:-0.188477 8:0.0882962 9:-0.999996 10:0.362097 11:-0.0387326 12:-0.99991 13:-0.0994717 14:-0.999914 15:-1 16:-1 17:-1 18:-1 19:-1 20:-1 21:-1 22:-1 23:-1 24:-1 25:-1 26:-1 27:-1 28:-1 29:-1 30:-1 31:-1 32:-1 33:-1 34:-1 
-0.08770216036052901 1:-0.994139 2:-0.775321 3:-0.704232 4:-0.0680684 5:-0.0186182 6:-0.998234 7:-0.213559 8:-0.768652 9:-0.990282 10:0.36213 11:-0.037701 12:-0.99441 13:-0.0986677 14:-0.992591 15:-0.6373 16:-0.955457 17:-1 18:-1 19:-0.55876 20:-0.948444 21:-1 22:-1 23:-0.664991 24:-0.956044 25:-1 26:-1 27:-0.545591 28:-0.930826 29:-0.679468 30:-0.999597 31:-1 32:-1 33:-0.696209 34:-0.999533 
-0.04119832651760155 1:-0.996869 2:-0.801604 3:-0.756438 4:-0.125937 5:0.0559019 6:-0.99742 7:-0.263426 8:-0.484587 9:-0.994519 10:0.364711 11:-0.0390461 12:-0.996765 13:-0.0989198 14:-0.995678 15:-0.700093 16:-0.999771 17:-0.437067 18:-0.9996 19:-1 20:-1 21:-0.445554 22:-0.999113 23:-1 24:-1 25:-0.18649 26:-0.999567 27:-1 28:-1 29:-0.498528 30:-0.99993 31:-1 32:-1 33:-0.262544 34:-0.999289 
-1.759131267218818 1:-0.999117 2:-0.799259 3:-0.770607 4:-0.0689056 5:-0.0305519 6:-0.998261 7:-0.210478 8:-0.73873 9:-0.999772 10:0.362363 11:-0.0387161 12:-0.998886 13:-0.099479 14:-0.998885 15:-0.819282 16:-0.999593 17:-1 18:-1 19:-1 20:-1 21:-1 22:-1 23:-1 24:-1 25:-1 26:-1 27:-1 28:-1 29:-1 30:-1 31:-1 32:-1 33:-1 34:-1 
-11.06718292395061 1:-0.999759 2:-0.746174 3:-0.716932 4:-0.12902 5:-0.150104 6:-0.997717 7:-0.238949 8:-0.969346 9:-0.999984 10:0.362098 11:-0.0387333 12:-0.999877 13:-0.0994861 14:-0.999879 15:-1 16:-1 17:-1 18:-1 19:-1 20:-1 21:-1 22:-1 23:-1 24:-1 25:-1 26:-1 27:-1 28:-1 29:-1 30:-1 31:-1 32:-1 33:-1 34:-1 
-26.86340362813127 1:-0.999599 2:-0.546128 3:-0.499173 4:-0.140702 5:-0.0944011 6:-0.997672 7:-0.24166 8:-0.946551 9:-0.999994 10:0.3621 11:-0.0387464 12:-0.999786 13:-0.0996319 14:-0.999795 15:-1 16:-1 17:-1 18:-1 19:-1 20:-1 21:-1 22:-1 23:-0.967502 24:-0.989813 25:-1 26:-1 27:-1 28:-1 29:-1 30:-1 31:-1 32:-1 33:-1 34:-1 
-0.0386220467847297 1:-0.982095 2:-0.443555 3:-0.35189 4:-0.103374 5:0.109038 6:-0.999269 7:-0.234736 8:-0.715425 9:-0.946459 10:0.354529 11:-0.0379752 12:-0.980072 13:-0.141469 14:-0.970096 15:-0.756625 16:-0.673076 17:-1 18:-1 19:-1 20:-1 21:-0.574221 22:0.0473249 23:-1 24:-1 25:-1 26:-1 27:-0.618644 28:-0.530457 29:-1 30:-1 31:-1 32:-1 33:-0.63019 34:-0.579578 
-0.05416116878917171 1:0.445261 2:-0.998523 3:-0.998906 4:-0.095286 5:-0.223736 6:-0.997644 7:-0.230853 8:-0.999583 9:-0.465871 10:0.582764 11:0.053409 12:0.736032 13:0.152673 14:0.773822 15:0.0828798 16:-0.979974 17:0.990123 18:-0.976988 19:0.0965308 20:-0.977101 21:0.995621 22:-0.933744 23:0.416032 24:-0.977959 25:0.956433 26:-0.977913 27:0.848688 28:-0.969305 29:0.846377 30:-0.975843 31:0.860227 32:-0.982795 33:0.714673 34:-0.978377 
-0.03303340148884604 1:-0.489903 2:-0.998127 3:-0.998271 4:-0.0925414 5:-0.22372 6:-0.997416 7:-0.230829 8:-0.975136 9:-0.597255 10:0.382882 11:0.0593683 12:-0.848484 13:-0.136837 14:-0.839964 15:-0.666526 16:-0.846729 17:-0.3487 18:-0.820969 19:-0.641332 20:-0.816867 21:-0.344467 22:-0.453284 23:-0.534833 24:-0.814644 25:-0.353658 26:-0.815212 27:-0.393803 28:-0.747774 29:-0.395501 30:-0.819832 31:-0.363338 32:-0.829453 33:-0.455364 34:-0.816369 
-0.05224840869314051 1:-0.757758 2:-0.993826 3:-0.985528 4:-0.0887868 5:-0.21649 6:-0.997943 7:-0.227632 8:-0.992683 9:-0.66286 10:0.436461 11:-0.0267554 12:-0.646172 13:-0.24992 14:-0.587701 15:0.1045 16:-0.954131 17:0.964151 18:-0.954517 19:0.081212 20:-0.951825 21:0.923956 22:-0.868017 23:0.382335 24:-0.950943 25:0.921035 26:-0.952289 27:0.776031 28:-0.937978 29:0.327445 30:-0.968488 31:-0.0891986 32:-0.970316 33:-0.552962 34:-0.964117 
-0.05040049074290193 1:-0.814926 2:-0.993828 3:-0.986954 4:-0.101345 5:-0.230601 6:-0.997926 7:-0.227638 8:-0.993437 9:-0.76527 10:0.468632 11:-0.0402462 12:-0.816665 13:-0.0509785 14:-0.772561 15:-0.106286 16:-0.980546 17:0.614897 18:-0.963266 19:-0.126594 20:-0.961492 21:0.580963 22:-0.906515 23:0.128957 24:-0.995771 25:0.559957 26:-0.995181 27:0.484068 28:-0.992004 29:0.185472 30:-0.994043 31:-0.178967 32:-0.99571 33:-0.642642 34:-0.995809 
-0.04255496775484358 1:-0.867759 2:-0.986152 3:-0.977504 4:-0.104471 5:-0.209492 6:-0.997334 7:-0.236449 8:-0.978974 9:-0.752163 10:0.136005 11:-0.055864 12:-0.89278 13:-0.0483127 14:-0.846689 15:-0.277194 16:-0.866617 17:0.318601 18:-0.861866 19:-0.276043 20:-0.948613 21:0.281174 22:-0.857547 23:-0.101251 24:-0.949336 25:0.282232 26:-0.950632 27:0.164887 28:-0.930323 29:0.189198 30:-0.949939 31:-0.0854812 32:-0.970119 33:-0.560589 34:-0.964398 
-0.06902405848868846 1:-0.946445 2:-0.94747 3:-0.917976 4:-0.0981734 5:-0.0800601 6:-0.998613 7:-0.235827 8:-0.439783 9:-0.597765 10:1 11:-0.212518 12:-0.867137 13:-0.377357 14:-0.829983 15:-0.50875 16:-0.62001 17:-0.0865465 18:-0.607987 19:-0.458937 20:-0.611141 21:-0.105117 22:0.151034 23:-0.218278 24:-0.610021 25:0.169581 26:-0.607478 27:0.0133732 28:-0.456162 29:-0.149227 30:-0.609175 31:0.0966861 32:-0.642046 33:-0.292466 34:-0.565124 
-0.06882637114735268 1:-0.94789 2:-0.959786 3:-0.929874 4:-0.106025 5:-0.369385 6:-0.998128 7:-0.209568 8:-0.398673 9:-0.730856 10:0.0572988 11:-0.390154 12:-0.880564 13:-1 14:-0.857936 15:-0.0127585 16:-0.983071 17:0.916162 18:-0.979548 19:-0.288888 20:-0.981244 21:0.753509 22:-0.948816 23:0.302645 24:-0.981202 25:0.726433 26:-0.981835 27:0.684237 28:-0.97401 29:0.737469 30:-0.985111 31:0.503549 32:-0.998565 33:-0.0178435 34:-0.537626 
-0.02985010998859278 1:-0.968124 2:-0.945127 3:-0.998259 4:-0.105486 5:-0.237392 6:-0.920391 7:-0.0589004 8:-0.591448 9:-0.979957 10:0.350992 11:-0.0250136 12:-0.963751 13:-0.083354 14:-0.963327 15:-0.85895 16:-0.945141 17:-0.732798 18:-0.923323 19:-0.791153 20:-0.818751 21:-0.846699 22:-0.745402 23:-0.838905 24:-0.906525 25:-0.489288 26:-0.914142 27:-0.659354 28:-0.866361 29:-0.594886 30:-0.920693 31:-0.469377 32:-0.908497 33:-0.541948 34:-0.887608 
-1.315160629202754 1:-0.96981 2:-0.956142 3:-0.957921 4:-0.124827 5:-0.132496 6:-0.988079 7:-0.290656 8:-0.678896 9:-0.994606 10:0.390434 11:-0.0359807 12:-0.982783 13:-0.0989394 14:-0.982499 15:-0.88438 16:-0.945361 17:-0.816627 18:-0.977143 19:-0.90024 20:-0.978299 21:-0.993398 22:-0.833664 23:-0.993265 24:-0.90886 25:-0.995391 26:-0.908067 27:-0.966796 28:-0.859006 29:-0.991592 30:-0.903343 31:-0.993978 32:-0.914435 33:-0.993149 34:-0.894011 
-0.04459395048824748 1:-0.980088 2:-0.959786 3:-0.948298 4:-0.081124 5:-0.295142 6:-0.997644 7:-0.248859 8:-0.840295 9:-0.983525 10:0.356657 11:-0.0397375 12:-0.985866 13:-0.0993832 14:-0.982801 15:-0.683315 16:-0.998458 17:-0.349411 18:-0.99636 19:-0.648878 20:-0.996474 21:-0.365526 22:-0.9894 23:-0.5804 24:-0.997979 25:-0.430823 26:-0.997854 27:-0.392528 28:-0.996642 29:-0.405151 30:-0.997818 31:-0.346124 32:-0.996858 33:-0.527091 34:-0.997191 
-3.979769229561087 1:-0.999117 2:-0.920222 3:-0.909561 4:-0.0783964 5:-0.227 6:-0.998248 7:-0.231408 8:-0.999775 9:-0.999946 10:0.36204 11:-0.0387297 12:-0.999964 13:-0.0994731 14:-0.999954 15:-0.977203 16:-0.992177 17:-1 18:-1 19:-1 20:-1 21:-1 22:-1 23:-1 24:-1 25:-1 26:-1 27:-1 28:-1 29:-1 30:-1 31:-1 32:-1 33:-0.854745 34:-0.99075 
-0.04807096922409428 1:-0.999518 2:-0.932286 3:-0.999971 4:-0.0929335 5:-0.217518 6:-0.921172 7:0.131261 8:0.769975 9:-0.999999 10:0.362082 11:-0.0387327 12:-0.999992 13:-0.0994878 14:-0.999992 15:-0.992389 16:-0.997445 17:-1 18:-1 19:-1 20:-1 21:-1 22:-1 23:-1 24:-1 25:-1 26:-1 27:-1 28:-1 29:-1 30:-1 31:-1 32:-1 33:-1 34:-1 
-0.047841606778651 1:-0.904372 2:-0.896501 3:-0.874315 4:-0.0960707 5:-0.396954 6:-0.999273 7:-0.229677 8:-0.545242 9:-0.622408 10:0.532255 11:0.0321012 12:-0.871648 13:-0.167506 14:-0.832153 15:-0.743542 16:-0.669033 17:-0.546515 18:-0.652401 19:-0.74695 20:-0.654997 21:-0.824052 22:0.0371989 23:-0.939899 24:-0.735214 25:-0.523105 26:-0.650921 27:-0.586 28:-0.510262 29:-0.854244 30:-0.645412 31:-0.470843 32:-0.671777 33:-0.462306 34:-0.472521 
-0.06752270279660544 1:-0.950058 2:-0.896617 3:-0.840416 4:-0.0965379 5:0.0373376 6:-0.99862 7:-0.232965 8:0.0355443 9:-0.485497 10:0.283305 11:-0.0132724 12:-0.833696 13:0.211228 14:-0.827623 15:-0.225247 16:-0.612211 17:0.470409 18:-0.594341 19:-0.262405 20:-0.591193 21:-0.783056 22:-0.95131 23:0.253409 24:-0.613174 25:0.723635 26:-0.596833 27:-0.0331203 28:-0.44295 29:0.712443 30:-0.597668 31:0.671414 32:-0.647232 33:0.314527 34:-0.564751 
-0.04615044093560167 1:-0.99719 2:-0.887073 3:-0.998089 4:-0.0753532 5:-0.188304 6:-0.84526 7:0.222111 8:0.412268 9:-0.998012 10:0.365333 11:-0.0387954 12:-0.998328 13:-0.0997682 14:-0.997957 15:-0.998071 16:-0.906462 17:-1 18:-1 19:-1 20:-1 21:-0.996091 22:-0.715157 23:-0.998916 24:-0.941804 25:-0.997689 26:-0.935064 27:-0.997915 28:-0.936803 29:-0.997863 30:-0.947555 31:-1 32:-1 33:-0.992604 34:-0.686615 
-0.02810168224110243 1:-0.998153 2:-0.856711 3:-0.849847 4:-0.0666159 5:-0.656973 6:-0.996959 7:-0.306455 8:0.99967 9:-1 10:0.362073 11:-0.0387328 12:-0.99994 13:-0.099489 14:-0.999943 15:-1 16:-1 17:-0.995246 18:-0.987819 19:-1 20:-1 21:-0.997467 22:-0.981998 23:-0.998015 24:-0.99364 25:-1 26:-1 27:-0.994732 28:-0.983295 29:-1 30:-1 31:-0.9971 32:-0.994331 33:-1 34:-1 
-0.04558219800039535 1:-0.996226 2:-0.803388 3:-0.747876 4:-0.126574 5:0.0286609 6:-0.997194 7:-0.25984 8:-0.594409 9:-0.98992 10:0.362273 11:-0.0382578 12:-0.996109 13:-0.0994391 14:-0.994017 15:-0.522681 16:-0.9998 17:-0.161924 18:-0.99949 19:-1 20:-1 21:-0.433079 22:-0.999048 23:-1 24:-1 25:-0.183401 26:-0.999161 27:-1 28:-1 29:-0.481331 30:-0.999772 31:-1 32:-1 33:-0.251692 34:-0.999292 
-19.47852369527578 1:-0.996869 2:-0.72061 3:-0.68871 4:-0.0691877 5:-0.0669753 6:-0.99877 7:-0.218827 8:-0.873303 9:-0.999798 10:0.362895 11:-0.0387574 12:-0.998062 13:-0.0997503 14:-0.998109 15:-0.997291 16:-0.949631 17:-1 18:-1 19:-1 20:-1 21:-0.931998 22:-0.874222 23:-1 24:-1 25:-1 26:-1 27:-0.996831 28:-0.951745 29:-1 30:-1 31:-1 32:-1 33:-0.984329 34:-0.94982 
-0.05826484186768945 1:-0.997993 2:-0.776275 3:-0.733725 4:-0.0666719 5:0.0693842 6:-0.998048 7:-0.201974 8:-0.482172 9:-0.997767 10:0.361628 11:-0.0384542 12:-0.99788 13:-0.100308 14:-0.997474 15:-0.802076 16:-0.999796 17:-1 18:-1 19:-1 20:-1 21:-1 22:-1 23:-1 24:-1 25:-1 26:-1 27:-0.886417 28:-0.992432 29:-0.69939 30:-0.999945 31:-1 32:-1 33:-0.693544 34:-0.999368 
-0.03363650731671526 1:-0.999679 2:-0.739441 3:-0.995587 4:-0.143417 5:-0.286471 6:-0.690874 7:0.426938 8:0.489398 9:-0.999997 10:0.362039 11:-0.0387184 12:-0.999877 13:-0.0994667 14:-0.999882 15:-0.984748 16:-0.999921 17:-1 18:-1 19:-1 20:-1 21:-1 22:-1 23:-1 24:-1 25:-1 26:-1 27:-1 28:-1 29:-1 30:-1 31:-1 32:-1 33:-0.976281 34:-0.998823 
-3.023853471121075 1:-0.999438 2:-0.550189 3:-0.500496 4:-0.140176 5:0.0597951 6:-0.99771 7:-0.25435 8:-0.742243 9:-0.999963 10:0.36201 11:-0.0387201 12:-0.999445 13:-0.0993251 14:-0.999462 15:-1 16:-1 17:-1 18:-1 19:-1 20:-1 21:-1 22:-1 23:-1 24:-1 25:-1 26:-1 27:-0.888668 28:-0.987961 29:-1 30:-1 31:-1 32:-1 33:-1 34:-1 
-0.05937238033003189 1:0.446144 2:-0.998523 3:-0.998905 4:-0.0952852 5:-0.223736 6:-0.997644 7:-0.230844 8:-0.999578 9:-0.464709 10:-0.0142952 11:-0.0848474 12:0.737462 13:-0.104933 14:0.775394 15:0.0838307 16:-0.978583 17:0.98965 18:-0.976568 19:0.0962353 20:-0.977798 21:1 22:-0.938185 23:0.412066 24:-0.977294 25:0.953641 26:-0.979388 27:0.850159 28:-0.969889 29:0.834565 30:-0.975173 31:0.868895 32:-0.982374 33:0.70792 34:-0.980181 
-0.05107121396912759 1:-0.339516 2:-0.998967 3:-0.998684 4:-0.0969136 5:-0.223725 6:-0.99819 7:-0.230869 8:-0.999958 9:-0.781246 10:0.430606 11:-0.0341139 12:-0.76848 13:-0.0922482 14:-0.729948 15:-0.83445 16:-0.995935 17:-0.347389 18:-0.995496 19:-0.457631 20:-0.984072 21:-0.00683413 22:-0.944705 23:-0.297364 24:-0.983594 25:-0.032372 26:-0.981103 27:-0.0838919 28:-0.974593 29:-0.0984505 30:-0.98929 31:-0.39963 32:-0.996205 33:-0.757455 34:-0.99594 
-0.01285308199524882 1:-0.489261 2:-0.998127 3:-0.998268 4:-0.0925377 5:-0.223727 6:-0.997412 7:-0.230838 8:-0.974894 9:-0.59498 10:0.435822 11:-0.0246696 12:-0.847397 13:-0.166679 14:-0.839244 15:-0.665943 16:-0.844938 17:-0.347396 18:-0.819821 19:-0.642171 20:-0.818667 21:-0.345542 22:-0.450742 23:-0.532014 24:-0.817201 25:-0.35418 26:-0.813699 27:-0.391733 28:-0.744377 29:-0.400504 30:-0.817743 31:-0.36567 32:-0.829637 33:-0.458938 34:-0.817912 
-0.06060807280117386 1:-0.756474 2:-0.993828 3:-0.985409 4:-0.0887654 5:-0.21628 6:-0.997943 7:-0.227553 8:-0.992326 9:-0.660105 10:0.0291928 11:-0.112245 12:-0.639365 13:0.0233825 14:-0.580637 15:0.0940849 16:-0.953788 17:1 18:-0.953669 19:0.0664259 20:-0.952166 21:0.90852 22:-0.865148 23:0.362751 24:-0.950371 25:0.966963 26:-0.952564 27:0.792613 28:-0.939953 29:0.280676 30:-0.968967 31:-0.130038 32:-0.969947 33:-0.59337 34:-0.963308 
-0.0523172616135489 1:-0.807861 2:-0.980161 3:-0.977592 4:-0.0829294 5:-0.243432 6:-0.995841 7:-0.240905 8:-0.940359 9:-0.639949 10:0.469444 11:-0.0505928 12:-0.88953 13:0.0589613 14:-0.849348 15:-0.453562 16:-0.82967 17:-0.0468418 18:-0.81917 19:-0.453494 20:-0.82229 21:-0.0402864 22:-0.481592 23:-0.322229 24:-0.823455 25:-0.0381684 26:-0.823815 27:-0.0832 28:-0.765557 29:-0.123218 30:-0.823398 31:-0.132651 32:-0.829189 33:-0.621369 34:-0.998571 
-0.05295537059103511 1:-0.814766 2:-0.993828 3:-0.98694 4:-0.101349 5:-0.230572 6:-0.997926 7:-0.227654 8:-0.993496 9:-0.765237 10:0.851092 11:-0.0380236 12:-0.816971 13:-0.0747918 14:-0.772847 15:-0.106059 16:-0.98037 17:0.614897 18:-0.963129 19:-0.126653 20:-0.961802 21:0.576778 22:-0.90588 23:0.129186 24:-0.995681 25:0.559957 26:-0.995181 27:0.489655 28:-0.99275 29:0.179929 30:-0.99364 31:-0.178967 32:-0.995908 33:-0.64011 34:-0.995809 
-2.785064345593119 1:-0.891525 2:-0.991316 3:-0.999077 4:-0.091289 5:-0.222852 6:-0.987464 7:-0.226165 8:-0.994582 9:-0.981287 10:0.375222 11:-0.0216747 12:-0.966948 13:-0.10316 14:-0.966529 15:-0.852784 16:-0.946588 17:-0.732494 18:-0.941434 19:-0.85314 20:-0.989546 21:-0.734104 22:-0.98807 23:-0.810068 24:-0.994178 25:-0.75041 26:-0.995075 27:-0.758508 28:-0.986694 29:-0.762399 30:-0.990536 31:-0.777824 32:-0.993935 33:-0.771474 34:-0.978851 
-0.03862554451081658 1:-0.943233 2:-0.948021 3:-0.916542 4:-0.0994814 5:-0.0857669 6:-0.998557 7:-0.237569 8:-0.430935 9:-0.539878 10:0.545783 11:-0.0266963 12:-0.855743 13:-0.16712 14:-0.825112 15:-0.249185 16:-0.612084 17:0.34967 18:-0.595995 19:-0.253244 20:-0.595255 21:0.337665 22:0.21175 23:-0.281477 24:-0.607832 25:0.355619 26:-0.599894 27:0.247859 28:-0.452398 29:0.210055 30:-0.607089 31:0.160795 32:-0.640716 33:-0.298008 34:-0.565059 
-0.05944095881042283 1:-0.947569 2:-0.959787 3:-0.930026 4:-0.106047 5:-0.367933 6:-0.998128 7:-0.209686 8:-0.40763 9:-0.73091 10:0.509598 11:0.0278865 12:-0.878807 13:-0.252432 14:-0.856366 15:-0.011145 16:-0.982922 17:0.900571 18:-0.979515 19:-0.228156 20:-0.981259 21:0.825917 22:-0.948729 23:0.302565 24:-0.981256 25:0.717529 26:-0.98222 27:0.684139 28:-0.973646 29:0.747653 30:-0.984725 31:0.495162 32:-0.998676 33:-0.0869428 34:-0.53779 
-0.1018231463214823 1:-0.974869 2:-0.928211 3:-0.938633 4:-0.0399756 5:-0.330463 6:-0.971661 7:-0.320342 8:-0.698414 9:-0.991355 10:0.363564 11:-0.0426759 12:-0.973558 13:-0.096832 14:-0.972818 15:-0.770798 16:-0.997897 17:-0.562205 18:-0.996358 19:-0.784851 20:-0.998391 21:-0.560777 22:-0.989208 23:-0.703788 24:-0.998366 25:-0.5548 26:-0.996207 27:-0.620635 28:-0.997713 29:-0.588679 30:-0.998232 31:-0.621191 32:-0.99513 33:-0.644672 34:-0.988631 
-0.7954638135548786 1:-0.978642 2:-0.9437 3:-0.997909 4:-0.107104 5:-0.237908 6:-0.920354 7:-0.0763977 8:-0.669222 9:-0.990675 10:0.353478 11:-0.0364699 12:-0.973442 13:-0.0780401 14:-0.974061 15:-0.859004 16:-0.942761 17:-0.873227 18:-0.9025 19:-0.865253 20:-0.900078 21:-0.820827 22:-0.66888 23:-0.839154 24:-0.902773 25:-0.735116 26:-0.910379 27:-0.735765 28:-0.883521 29:-0.722942 30:-0.914215 31:-0.705176 32:-0.922894 33:-0.629875 34:-0.902918 
-2.75366708349211 1:-0.996869 2:-0.959624 3:-0.99891 4:-0.105051 5:-0.223998 6:-0.944382 7:-0.228444 8:-0.996277 9:-0.998807 10:0.361861 11:-0.0387601 12:-0.999541 13:-0.0994768 14:-0.999365 15:-0.992671 16:-0.902401 17:-1 18:-1 19:-0.995899 20:-0.888799 21:-1 22:-1 23:-1 24:-1 25:-0.990855 26:-0.925724 27:-1 28:-1 29:-0.839224 30:-0.893104 31:-1 32:-1 33:-0.998976 34:-0.977874 
-3.162074212404053 1:-0.997109 2:-0.934655 3:-0.925377 4:-0.0786445 5:-0.19568 6:-0.997927 7:-0.225149 8:-0.982398 9:-0.999666 10:0.361735 11:-0.0387426 12:-0.9997 13:-0.0997365 14:-0.999652 15:-0.983465 16:-0.997219 17:-1 18:-1 19:-1 20:-1 21:-0.802775 22:-0.947567 23:-1 24:-1 25:-1 26:-1 27:-0.801369 28:-0.96086 29:-1 30:-1 31:-1 32:-1 33:-0.89799 34:-0.983818 
-0.0611323206143865 1:-0.904211 2:-0.89663 3:-0.874371 4:-0.096057 5:-0.397406 6:-0.999265 7:-0.229691 8:-0.543515 9:-0.619216 10:0.0609318 11:-0.0239384 12:-0.87123 13:-0.366922 14:-0.830835 15:-0.744974 16:-0.674502 17:-0.546596 18:-0.642978 19:-0.746859 20:-0.655372 21:-0.8282 22:0.0371876 23:-0.941229 24:-0.73535 25:-0.532781 26:-0.650761 27:-0.588097 28:-0.510422 29:-0.851427 30:-0.645619 31:-0.468509 32:-0.672203 33:-0.456537 34:-0.474124 
-0.06697838162568187 1:-0.950941 2:-0.896364 3:-0.84073 4:-0.0960775 5:0.0367345 6:-0.998576 7:-0.232264 8:0.0147565 9:-0.497112 10:0.547743 11:-0.181263 12:-0.839012 13:-0.136589 14:-0.827958 15:-0.237094 16:-0.61238 17:0.389809 18:-0.59082 19:-0.1979 20:-0.596687 21:-0.841844 22:-0.964892 23:-0.198337 24:-0.610357 25:0.620774 26:-0.595497 27:0.106043 28:-0.43777 29:0.615939 30:-0.595891 31:0.605061 32:-0.647313 33:0.365186 34:-0.564216 
-0.08011818080802649 1:-0.98627 2:-0.843753 3:-0.811815 4:-0.0583516 5:-0.440334 6:-0.995857 7:-0.269897 8:-0.590065 9:-0.992905 10:0.359405 11:-0.0390988 12:-0.988142 13:-0.103668 14:-0.987877 15:-0.97207 16:-0.938307 17:-0.988076 18:-0.979297 19:-1 20:-1 21:-0.507306 22:-0.705057 23:-0.698151 24:-0.906849 25:-1 26:-1 27:-0.655114 28:-0.868239 29:-1 30:-1 31:-0.69413 32:-0.922679 33:-0.622068 34:-0.895596 
-0.05458271988629064 1:-0.996869 2:-0.885719 3:-0.99809 4:-0.0751477 5:-0.190123 6:-0.841339 7:0.205082 8:0.276216 9:-0.996987 10:0.362942 11:-0.0386963 12:-0.998136 13:-0.0995055 14:-0.997544 15:-0.980163 16:-0.976354 17:-0.998047 18:-0.952545 19:-0.998737 20:-0.884717 21:-1 22:-1 23:-0.996964 24:-0.904118 25:-0.999313 26:-0.936993 27:-0.989136 28:-0.643087 29:-0.997886 30:-0.950346 31:-0.999156 32:-0.942279 33:-0.993641 34:-0.682312 
-0.01373373637845839 1:-0.996387 2:-0.803215 3:-0.753919 4:-0.12619 5:0.0296064 6:-0.997269 7:-0.260299 8:-0.581321 9:-0.991524 10:0.361317 11:-0.036776 12:-0.996324 13:-0.101375 14:-0.994584 15:-0.536409 16:-0.999748 17:-0.437092 18:-0.999668 19:-1 20:-1 21:-0.445578 22:-0.998986 23:-1 24:-1 25:-0.20459 26:-0.998958 27:-1 28:-1 29:-0.512651 30:-0.999332 31:-1 32:-1 33:-0.267804 34:-0.999567 
-4.534978117474729 1:-0.996708 2:-0.730523 3:-0.689513 4:-0.0687568 5:-0.0562095 6:-0.998722 7:-0.217755 8:-0.853621 9:-0.999664 10:0.361341 11:-0.0382642 12:-0.998033 13:-0.0994466 14:-0.998079 15:-0.963668 16:-0.959271 17:-1 18:-1 19:-0.880236 20:-0.952039 21:-1 22:-1 23:-1 24:-1 25:-0.987125 26:-0.956358 27:-1 28:-1 29:-0.994996 30:-0.973779 31:-1 32:-1 33:-1 34:-1 
-0.4481476107341404 1:-0.998314 2:-0.802682 3:-0.768173 4:-0.0686298 5:0.0132817 6:-0.998159 7:-0.205866 8:-0.610967 9:-0.998929 10:0.364353 11:-0.0387373 12:-0.99822 13:-0.0995172 14:-0.99806 15:-0.822679 16:-0.999927 17:-1 18:-1 19:-1 20:-1 21:-1 22:-1 23:-1 24:-1 25:-0.702753 26:-0.99973 27:-1 28:-1 29:-0.708044 30:-0.999335 31:-1 32:-1 33:-0.725726 34:-0.999311 
-0.02116794408574578 1:-0.999599 2:-0.73903 3:-0.995598 4:-0.14333 5:-0.288625 6:-0.690126 7:0.452399 8:0.603205 9:-0.999994 10:0.362054 11:-0.0387615 12:-0.999849 13:-0.0995215 14:-0.999856 15:-0.984948 16:-0.999017 17:-1 18:-1 19:-1 20:-1 21:-1 22:-1 23:-0.98299 24:-0.99062 25:-1 26:-1 27:-1 28:-1 29:-1 30:-1 31:-1 32:-1 33:-0.973275 34:-0.991549 
-1.257807590966306 1:-0.999277 2:-0.68168 3:-0.641198 4:-0.132367 5:0.083586 6:-0.997793 7:-0.260187 8:-0.57785 9:-0.999848 10:0.362154 11:-0.0387212 12:-0.999173 13:-0.0994677 14:-0.999177 15:-1 16:-1 17:-1 18:-1 19:-1 20:-1 21:-1 22:-1 23:-1 24:-1 25:-1 26:-1 27:-1 28:-1 29:-0.892256 30:-0.993243 31:-1 32:-1 33:-1 34:-1 
-4.754606104365801 1:-0.999438 2:-0.547491 3:-0.499312 4:-0.139751 5:0.112006 6:-0.99776 7:-0.25836 8:-0.639241 9:-0.999972 10:0.362187 11:-0.038757 12:-0.999276 13:-0.0999063 14:-0.999303 15:-1 16:-1 17:-1 18:-1 19:-1 20:-1 21:-1 22:-1 23:-1 24:-1 25:-1 26:-1 27:-1 28:-1 29:-1 30:-1 31:-1 32:-1 33:-0.900881 34:-0.989679 
-0.03474641255615629 1:-0.98338 2:-0.441159 3:-0.351077 4:-0.104346 5:0.131213 6:-0.9993 7:-0.235479 8:-0.678467 9:-0.953578 10:0.382732 11:-0.0397708 12:-0.980804 13:-0.082098 14:-0.972277 15:-0.795429 16:-0.676714 17:-1 18:-1 19:-1 20:-1 21:-0.619003 22:-0.0398834 23:-1 24:-1 25:-1 26:-1 27:-0.617116 28:-0.537766 29:-1 30:-1 31:-1 32:-1 33:-0.613294 34:-0.585342 
-0.06864664695753087 1:1 2:-0.999917 3:-0.999142 4:-0.0952632 5:-0.223738 6:-0.9995 7:-0.230836 8:-0.998187 9:-0.658704 10:0.504937 11:-0.102901 12:0.874224 13:0.00193671 14:0.844403 15:-0.848536 16:-0.972763 17:0.794591 18:-0.901962 19:-0.0235898 20:-0.840019 21:0.751254 22:-0.531642 23:0.215066 24:-0.84384 25:0.999697 26:-0.845988 27:1 28:-0.782838 29:0.979827 30:-0.852078 31:0.996142 32:-0.865176 33:0.849728 34:-0.837424 
-0.06668347952566839 1:-0.156209 2:-1 3:-0.998926 4:-0.0941177 5:-0.22519 6:-0.998428 7:-0.234268 8:-0.984159 9:-0.594151 10:0.0424334 11:-0.342503 12:-0.352114 13:-0.113364 14:-0.327512 15:-0.928693 16:-0.904828 17:-0.612449 18:-0.849075 19:-0.677714 20:-0.864289 21:-0.152269 22:-0.600429 23:-0.150963 24:-0.864627 25:0.147906 26:-0.868715 27:0.0910988 28:-0.826155 29:0.0859376 30:-0.838418 31:0.017731 32:-0.83509 33:-0.547411 34:-0.937649 
-0.06856089659939729 1:-0.54113 2:-0.993821 3:-0.984759 4:-0.0964536 5:-0.241442 6:-0.999049 7:-0.229264 8:-0.910493 9:1 10:-0.171789 11:0.0180913 12:0.0228942 13:0.808657 14:0.285165 15:-0.544318 16:-0.498517 17:-0.213573 18:-0.472305 19:-0.583353 20:-0.491588 21:-0.232367 22:0.492201 23:-0.0154236 24:-0.458215 25:0.343656 26:-0.433753 27:0.281218 28:-0.231104 29:0.258756 30:-0.451777 31:-0.228124 32:-0.582175 33:-0.586203 34:-0.48566 
-0.1012945802883719 1:-0.906861 2:-0.990927 3:-0.994303 4:-0.104818 5:-0.211615 6:-0.990409 7:-0.250403 8:-0.944043 9:-0.958272 10:0.35435 11:-0.0420368 12:-0.975018 13:-0.0900779 14:-0.974108 15:-0.804259 16:-0.917005 17:-0.416453 18:-0.9201 19:-0.64015 20:-0.906157 21:-0.58064 22:-0.709216 23:-0.503527 24:-0.922603 25:-0.336748 26:-0.897836 27:-0.956989 28:-0.923616 29:-0.389101 30:-0.904627 31:-0.837581 32:-0.980015 33:-0.866525 34:-0.982248 
-0.05376032408144001 1:-0.924686 2:-0.98943 3:-0.977554 4:-0.0948355 5:-0.197188 6:-0.999904 7:-0.230507 8:-0.93219 9:-0.953837 10:0.353287 11:-0.0405987 12:-0.969566 13:-0.0973271 14:-0.968125 15:-0.91899 16:-0.773499 17:-1 18:-1 19:-0.895483 20:-0.81932 21:-1 22:-1 23:-0.459612 24:-0.930087 25:-0.327316 26:-0.82884 27:-0.696494 28:-0.979406 29:-0.505552 30:-0.787138 31:-0.787314 32:-0.989113 33:-0.30088 34:-0.738793 
-0.1470548000902233 1:-0.928781 2:-0.982971 3:-0.978542 4:-0.110421 5:-0.23705 6:-0.993524 7:-0.221849 8:-0.965094 9:-0.929659 10:0.35539 11:0.0143658 12:-0.938168 13:0.0489617 14:-0.934141 15:-0.73727 16:-0.799666 17:-0.678029 18:-0.792132 19:-0.819193 20:-0.79463 21:-0.882149 22:-0.971589 23:-0.849973 24:-0.870141 25:-0.881745 26:-0.984723 27:-0.907623 28:-0.981873 29:-0.878358 30:-0.986386 31:-0.390535 32:-0.964355 33:-0.503143 34:-0.941857 
-0.06308039427914329 1:-0.954314 2:-0.992464 3:-0.997765 4:-0.101164 5:-0.241014 6:-0.989724 7:-0.182733 8:-0.757876 9:-0.990563 10:0.364233 11:-0.0438297 12:-0.9865 13:-0.101131 14:-0.985346 15:-0.601226 16:-0.964034 17:-1 18:-1 19:-0.667238 20:-0.931864 21:-0.291019 22:-0.841796 23:-0.532592 24:-0.925209 25:-0.35693 26:-0.904463 27:-0.952199 28:-0.880322 29:-0.604246 30:-0.919511 31:-0.624419 32:-0.943237 33:-0.869783 34:-0.970957 
-0.08104837444303006 1:-0.955036 2:-0.990778 3:-0.99908 4:-0.0909672 5:-0.213401 6:-0.987321 7:-0.179609 8:-0.77926 9:-0.997501 10:0.36066 11:-0.038877 12:-0.992063 13:-0.0962885 14:-0.991904 15:-0.707259 16:-0.930969 17:-0.813659 18:-0.981188 19:-0.71849 20:-0.939655 21:-0.484182 22:-0.779728 23:-0.723758 24:-0.928204 25:-0.494158 26:-0.944177 27:-0.556892 28:-0.921242 29:-0.89397 30:-0.986195 31:-0.892106 32:-0.989768 33:-0.919256 34:-0.982498 
-0.07248568536766105 1:-0.965715 2:-0.989313 3:-0.999928 4:-0.0958554 5:-0.225443 6:-0.986294 7:-0.176619 8:-0.771403 9:-0.99825 10:0.363773 11:-0.0378415 12:-0.997493 13:-0.100269 14:-0.997226 15:-0.791687 16:-0.981519 17:-1 18:-1 19:-1 20:-1 21:-1 22:-1 23:-0.773393 24:-0.977542 25:-0.92018 26:-0.996481 27:-1 28:-1 29:-1 30:-1 31:-0.93184 32:-0.986613 33:-0.655838 34:-0.9776 
-0.06123858398724779 1:-0.970854 2:-0.954787 3:-0.985452 4:-0.0599073 5:-0.129977 6:-0.950626 7:-0.0161469 8:-0.00470366 9:-0.990104 10:0.353908 11:-0.0441624 12:-0.986187 13:-0.101393 14:-0.98463 15:-0.979725 16:-0.948415 17:-0.968611 18:-0.941031 19:-0.988831 20:-0.938449 21:-0.960803 22:-0.780535 23:-0.906876 24:-0.862498 25:-0.797069 26:-0.687643 27:-0.878935 28:-0.691206 29:-0.827058 30:-0.707831 31:-0.952052 32:-0.919539 33:-0.940104 34:-0.893312 
-0.06542120214003855 1:-0.99189 2:-0.95972 3:-0.955928 4:-0.116906 5:-0.394589 6:-0.993938 7:-0.153136 8:0.0634069 9:-0.999359 10:0.362775 11:-0.0388609 12:-0.998472 13:-0.0993153 14:-0.99841 15:-0.962897 16:-0.984033 17:-0.944971 18:-0.995191 19:-0.938303 20:-0.989398 21:-0.898165 22:-0.983997 23:-0.582016 24:-0.959893 25:-0.930426 26:-0.99533 27:-0.917683 28:-0.993507 29:-0.915127 30:-0.99471 31:-0.93034 32:-0.996017 33:-0.922202 34:-0.99167 
-0.06852216572670145 1:0.996628 2:-0.999925 3:-0.999149 4:-0.0952601 5:-0.223738 6:-0.999498 7:-0.230835 8:-0.998228 9:-0.661672 10:-0.50315 11:-0.0596568 12:0.857892 13:0.019074 14:0.828664 15:-0.85083 16:-0.979953 17:0.793155 18:-0.902834 19:-0.0210401 20:-0.840207 21:0.743564 22:-0.533063 23:0.213081 24:-0.843488 25:1 26:-0.846611 27:0.987915 28:-0.783152 29:0.982202 30:-0.853313 31:1 32:-0.864979 33:0.850027 34:-0.839173 
-0.06704738730651555 1:-0.154362 2:-1 3:-0.998924 4:-0.0941173 5:-0.22519 6:-0.998428 7:-0.234267 8:-0.984177 9:-0.592102 10:0.575515 11:0.0450548 12:-0.349177 13:-0.0323574 14:-0.324259 15:-0.931116 16:-0.908131 17:-0.619108 18:-0.851846 19:-0.67787 20:-0.863275 21:-0.158984 22:-0.590645 23:-0.154506 24:-0.861799 25:0.157095 26:-0.867602 27:0.0870514 28:-0.824705 29:0.0810842 30:-0.838378 31:0.0177368 32:-0.834891 33:-0.549784 34:-0.938414 
-1.168956654817959 1:-0.874182 2:-0.997085 3:-0.996225 4:-0.0918434 5:-0.211482 6:-0.998299 7:-0.220626 8:-0.933812 9:-0.991237 10:0.350711 11:-0.0359379 12:-0.978971 13:-0.0994278 14:-0.978084 15:-0.941764 16:-0.856292 17:-0.907239 18:-0.863764 19:-0.92559 20:-0.806739 21:-0.934668 22:-0.695116 23:-0.923213 24:-0.80873 25:-0.904793 26:-0.822538 27:-0.926051 28:-0.801764 29:-0.885242 30:-0.81014 31:-0.93002 32:-0.892688 33:-0.977449 34:-0.948502 
-0.06880101829921947 1:-0.706612 2:-0.993821 3:-0.98342 4:-0.0922525 5:-0.243133 6:-0.999122 7:-0.234185 8:-0.912557 9:-0.10911 10:0.39191 11:-0.105138 12:-0.600519 13:-0.0211333 14:-0.502701 15:-0.600371 16:-0.699709 17:-0.343742 18:-0.68327 19:-0.643219 20:-0.680354 21:-0.268467 22:-0.0582147 23:-0.0620828 24:-0.707208 25:0.213749 26:-0.692084 27:0.165319 28:-0.587364 29:0.0722515 30:-0.735687 31:-0.24632 32:-0.715752 33:-0.55419 34:-0.612419 
-0.06878934147034971 1:-0.772693 2:-0.990927 3:-0.989348 4:-0.107848 5:-0.225688 6:-0.990502 7:-0.228547 8:-0.987902 9:-0.641354 10:0.517736 11:-0.0143986 12:-0.796605 13:0.0526027 14:-0.740617 15:-0.202741 16:-0.910047 17:0.21138 18:-0.902912 19:-0.233551 20:-0.803313 21:0.369568 22:-0.466802 23:-0.401456 24:-0.875113 25:-0.61488 26:-0.950616 27:-0.0321459 28:-0.899183 29:-0.0191059 30:-0.93812 31:-0.00302482 32:-0.939131 33:-0.533684 34:-0.965375 
-0.02365485729870777 1:-0.923401 2:-0.989303 3:-0.97749 4:-0.0948686 5:-0.196863 6:-0.999894 7:-0.23054 8:-0.931033 9:-0.949577 10:0.362369 11:-0.03211 12:-0.969112 13:-0.167869 14:-0.966887 15:-0.92073 16:-0.773606 17:-1 18:-1 19:-0.862899 20:-0.794413 21:-1 22:-1 23:-0.457477 24:-0.929542 25:-0.299967 26:-0.831142 27:-0.725705 28:-0.980391 29:-0.508732 30:-0.787231 31:-0.754735 32:-0.989118 33:-0.298839 34:-0.739232 
-0.04120980131564415 1:-0.954153 2:-0.9925 3:-0.99776 4:-0.101167 5:-0.24102 6:-0.989748 7:-0.182851 8:-0.758528 9:-0.990452 10:0.357493 11:-0.0415503 12:-0.986497 13:-0.0874844 14:-0.985311 15:-0.594992 16:-0.968022 17:-0.984992 18:-0.986793 19:-0.65968 20:-0.930472 21:-0.30533 22:-0.804149 23:-0.540048 24:-0.923708 25:-0.365197 26:-0.905942 27:-0.556804 28:-0.879289 29:-0.617905 30:-0.918193 31:-0.63672 32:-0.946609 33:-0.874598 34:-0.974888 
-0.15484378471051 1:-0.955839 2:-0.990856 3:-0.999099 4:-0.0910182 5:-0.21349 6:-0.987385 7:-0.179684 8:-0.778844 9:-0.997646 10:0.360935 11:-0.0343249 12:-0.992403 13:-0.0946898 14:-0.992248 15:-0.717183 16:-0.932315 17:-0.834656 18:-0.981404 19:-0.705841 20:-0.935781 21:-0.512487 22:-0.793826 23:-0.910347 24:-0.986118 25:-0.492391 26:-0.942437 27:-0.570313 28:-0.923281 29:-0.900511 30:-0.987652 31:-0.896358 32:-0.988466 33:-0.920188 34:-0.983491 
-0.002927251622327931 1:-0.971175 2:-0.954267 3:-0.98547 4:-0.0599201 5:-0.129699 6:-0.950631 7:-0.0154468 8:0.00188487 9:-0.990368 10:0.356346 11:-0.0422223 12:-0.986614 13:-0.117333 14:-0.9851 15:-0.986914 16:-0.950744 17:-0.971665 18:-0.960161 19:-0.987846 20:-0.930033 21:-0.96557 22:-0.796052 23:-0.903252 24:-0.859058 25:-0.800393 26:-0.696354 27:-0.867436 28:-0.688452 29:-0.826349 30:-0.709689 31:-0.95143 32:-0.920383 33:-0.94092 34:-0.893421 
-0.04554353329190908 1:-0.919306 2:-0.86315 3:-0.835008 4:-0.0807614 5:-0.390645 6:-0.998032 7:-0.24536 8:-0.70629 9:-0.592726 10:0.462274 11:-0.0517701 12:0.142787 13:-0.0979521 14:0.182326 15:-0.967584 16:0.90243 17:-0.865842 18:0.896932 19:-0.930629 20:0.898764 21:-1 22:-1 23:-0.943898 24:0.890066 25:-0.87935 26:0.898159 27:-0.949121 28:0.989357 29:-0.934819 30:0.898509 31:-0.901456 32:0.787129 33:-0.952517 34:0.999832 
-0.1879724970729312 1:-0.997029 2:-0.824983 3:-0.91602 4:-0.234488 5:-0.171044 6:-0.868928 7:-0.311924 8:-0.941404 9:-0.998153 10:0.363313 11:-0.0386096 12:-0.997024 13:-0.0991508 14:-0.996842 15:-0.721195 16:-0.950154 17:-0.481186 18:-0.955601 19:-1 20:-1 21:-0.68792 22:-0.841759 23:-0.780924 24:-0.936698 25:-1 26:-1 27:-0.787529 28:-0.960094 29:-1 30:-1 31:-0.936371 32:-0.981184 33:-0.953168 34:-0.967474 
-0.001418078814515389 1:-0.999599 2:-0.81452 3:-0.849227 4:-0.220855 5:-0.634387 6:-0.941198 7:0.0836362 8:0.789672 9:-1 10:0.362086 11:-0.0387301 12:-0.999955 13:-0.0994882 14:-0.999957 15:-0.992213 16:-0.986894 17:-1 18:-1 19:-1 20:-1 21:-1 22:-1 23:-1 24:-1 25:-1 26:-1 27:-1 28:-1 29:-1 30:-1 31:-1 32:-1 33:-1 34:-1 
-3.176283873332359 1:-0.999759 2:-0.84847 3:-0.827642 4:-0.0317633 5:-0.330244 6:-0.98688 7:-0.266853 8:-0.894382 9:-0.999931 10:0.362094 11:-0.0387319 12:-0.999907 13:-0.0994844 14:-0.999896 15:-0.809904 16:-0.99897 17:-1 18:-1 19:-1 20:-1 21:-1 22:-1 23:-1 24:-1 25:-1 26:-1 27:-1 28:-1 29:-1 30:-1 31:-1 32:-1 33:-0.987 34:-0.984951 
-0.004026578125829912 1:-0.982496 2:-0.803683 3:-0.829094 4:0.0910267 5:-0.430583 6:-0.883529 7:-0.440828 8:-0.588985 9:-0.922447 10:0.319634 11:-0.0391203 12:-0.951312 13:-0.100745 14:-0.936555 15:-0.915373 16:-0.173946 17:-0.9935 18:-0.891765 19:-0.983382 20:-0.339217 21:-0.984113 22:0.0701098 23:-0.982774 24:-0.597164 25:-0.985028 26:-0.596202 27:-0.982788 28:-0.541098 29:-0.948719 30:-0.587028 31:-0.984447 32:-0.686916 33:-0.735733 34:-0.418361 
-7.157910948607666 1:-0.998715 2:-0.720834 3:-0.999684 4:-0.088062 5:-0.232371 6:-0.641688 7:-0.945476 8:0.519929 9:-0.99957 10:0.361951 11:-0.0386862 12:-0.999567 13:-0.0992927 14:-0.999518 15:-0.952748 16:-0.988444 17:-1 18:-1 19:-1 20:-1 21:-1 22:-1 23:-1 24:-1 25:-1 26:-1 27:-1 28:-1 29:-1 30:-1 31:-0.97331 32:-0.991471 33:-0.612725 34:-0.908945 
-0.02013504792103474 1:-0.995825 2:-0.529283 3:-0.849323 4:-0.459645 5:-0.374109 6:-0.498467 7:0.107218 8:-0.756983 9:-0.981547 10:0.364185 11:-0.0387332 12:-0.991278 13:-0.09951 14:-0.987522 15:-0.9945 16:-0.393604 17:-1 18:-1 19:-1 20:-1 21:-0.988838 22:0.866643 23:-1 24:-1 25:-1 26:-1 27:-0.987747 28:-0.191674 29:-1 30:-1 31:-0.998469 32:-0.959375 33:-0.98929 34:-0.433783 
-0.06752164196737837 1:-0.995825 2:-0.527845 3:-0.715397 4:0.317671 5:0.0347919 6:-0.661137 7:0.115669 8:-0.616907 9:-0.983348 10:0.361939 11:-0.038916 12:-0.991265 13:-0.0997093 14:-0.988047 15:-0.302042 16:-0.992469 17:-1 18:-1 19:-1 20:-1 21:0.964111 22:-0.848858 23:-1 24:-1 25:-1 26:-1 27:0.804161 28:-0.926307 29:-1 30:-1 31:-0.961118 32:-0.980612 33:0.738846 34:-0.923082 
-0.06610688878698437 1:-0.997993 2:-0.346408 3:-0.544771 4:0.427618 5:0.254664 6:-0.661704 7:0.274914 8:-0.184613 9:-0.992962 10:0.365333 11:-0.0393945 12:-0.997031 13:-0.101953 14:-0.995704 15:-0.878214 16:-0.952072 17:-1 18:-1 19:-1 20:-1 21:-0.770741 22:-0.857695 23:-1 24:-1 25:-1 26:-1 27:-0.419828 28:-0.85428 29:-1 30:-1 31:-1 32:-1 33:0.41433 34:-0.925543 
-0.05775814863661502 1:-0.998555 2:-0.349917 3:-0.850624 4:-0.52401 5:-0.47099 6:-0.304086 7:0.42521 8:-0.340987 9:-0.993983 10:0.363038 11:-0.03874 12:-0.998209 13:-0.0995735 14:-0.996937 15:-0.999686 16:-0.943549 17:-1 18:-1 19:-1 20:-1 21:-0.985293 22:0.113804 23:-1 24:-1 25:-1 26:-1 27:-0.988577 28:-0.475439 29:-1 30:-1 31:-1 32:-1 33:-0.991205 34:-0.574589 
-0.04930286500042014 1:-0.999036 2:-0.347318 3:-0.840735 4:0.328234 5:-0.405842 6:-0.365882 7:-0.677307 8:-0.656475 9:-0.999284 10:0.362751 11:-0.0389321 12:-0.999045 13:-0.0986677 14:-0.998992 15:-0.995611 16:-0.939079 17:-1 18:-1 19:-1 20:-1 21:-0.760449 22:-0.69639 23:-1 24:-1 25:-1 26:-1 27:-0.690122 28:-0.861932 29:-1 30:-1 31:-1 32:-1 33:-0.999155 34:-0.93279 
-0.00916328353031929 1:-0.998234 2:-0.21392 3:-0.850444 4:-0.582621 5:-0.358842 6:-0.0981428 7:0.177859 8:-0.802566 9:-0.990543 10:0.367866 11:-0.0387467 12:-0.996503 13:-0.0993743 14:-0.994534 15:-0.994909 16:-0.479032 17:-1 18:-1 19:-1 20:-1 21:-0.989679 22:0.393243 23:-1 24:-1 25:-1 26:-1 27:-0.993494 28:-0.584255 29:-0.998232 30:-0.912838 31:-1 32:-1 33:-0.995834 34:-0.836575 
-0.03260213934209532 1:-0.998555 2:-0.212919 3:-0.372827 4:0.520201 5:0.13951 6:-0.660134 7:0.0970981 8:-0.650235 9:-0.996016 10:0.362715 11:-0.0387373 12:-0.997485 13:-0.0996338 14:-0.996828 15:-0.840766 16:-0.902658 17:-1 18:-1 19:-1 20:-1 21:0.351352 22:-0.80843 23:-1 24:-1 25:-1 26:-1 27:0.250125 28:-0.903677 29:-1 30:-1 31:-1 32:-1 33:-0.559538 34:-0.995512 
-0.06747085149238244 1:-0.998876 2:-0.09482 3:-0.820899 4:0.45186 5:-0.280671 6:-0.0567342 7:-0.391544 8:-0.944526 9:-0.997998 10:0.361126 11:-0.038867 12:-0.998185 13:-0.0987145 14:-0.99803 15:-0.482611 16:-0.891138 17:-1 18:-1 19:-1 20:-1 21:-1 22:-1 23:-0.872432 24:-0.966784 25:-0.206848 26:-0.926968 27:-1 28:-1 29:-1 30:-1 31:-1 32:-1 33:-0.846436 34:-0.865144 
-0.02136413858323097 1:-0.999679 2:-0.0536212 3:-0.253832 4:-0.775083 5:-0.913034 6:-0.652351 7:0.346148 8:0.0189826 9:-0.999996 10:0.362096 11:-0.0387305 12:-0.999799 13:-0.09947 14:-0.999807 15:-0.956845 16:-0.979393 17:-1 18:-1 19:-1 20:-1 21:-1 22:-1 23:-1 24:-1 25:-0.943524 26:-0.972946 27:-1 28:-1 29:-1 30:-1 31:-0.945211 32:-0.976382 33:-1 34:-1 
-0.009944700688270174 1:-0.999759 2:-0.124289 3:-0.986345 4:0.0634729 5:-0.253126 6:0.05506 7:-0.550904 8:-0.896704 9:-0.999999 10:0.362078 11:-0.0387332 12:-0.999846 13:-0.0994888 14:-0.999853 15:-1 16:-1 17:-1 18:-1 19:-1 20:-1 21:-1 22:-1 23:-1 24:-1 25:-1 26:-1 27:-1 28:-1 29:-1 30:-1 31:-1 32:-1 33:-1 34:-1 
-0.06887709584323271 1:-0.997511 2:0.0875302 3:-0.667888 4:-0.858344 5:-0.387801 6:0.00291166 7:0.122116 8:-0.867826 9:-0.999854 10:0.371547 11:-0.038749 12:-0.981076 13:-0.0992356 14:-0.981902 15:-0.950577 16:-0.974959 17:-1 18:-1 19:-0.891592 20:-0.959342 21:-0.803601 22:-0.887385 23:-0.704696 24:-0.940108 25:-0.906862 26:-0.980582 27:0.032809 28:-0.669446 29:0.664657 30:-0.643615 31:-0.837828 32:-0.958 33:-1 34:-1 
-0.02883303800484138 1:-0.998796 2:0.0154049 3:-0.851038 4:-0.655243 5:-0.333368 6:0.193531 7:0.151274 8:-0.869688 9:-0.993369 10:0.362847 11:-0.0387359 12:-0.997766 13:-0.0993832 14:-0.996375 15:-0.992033 16:-0.516917 17:-1 18:-1 19:-1 20:-1 21:-1 22:-1 23:-0.993201 24:-0.613 25:-1 26:-1 27:-1 28:-1 29:-1 30:-1 31:-1 32:-1 33:-0.990754 34:-0.436358 
-0.03669594202448219 1:-0.999197 2:0.047779 3:-0.115453 4:0.637258 5:0.125164 6:-0.658861 7:0.0347217 8:-0.772617 9:-0.997209 10:0.361891 11:-0.0386644 12:-0.998815 13:-0.0994534 14:-0.998284 15:-0.890875 16:-0.958102 17:-1 18:-1 19:-1 20:-1 21:-1 22:-1 23:-0.219072 24:-0.942485 25:-1 26:-1 27:-1 28:-1 29:-1 30:-1 31:-1 32:-1 33:-0.0458111 34:-0.928486 
-0.04793830645560508 1:-0.999358 2:0.201152 3:-0.96465 4:-0.394127 5:-0.279488 6:0.42732 7:0.204899 8:-0.858457 9:-0.999993 10:0.362058 11:-0.0387333 12:-0.99977 13:-0.0994886 14:-0.999779 15:-1 16:-1 17:-1 18:-1 19:-1 20:-1 21:-1 22:-1 23:-1 24:-1 25:-1 26:-1 27:-0.728637 28:-0.980664 29:-0.783141 30:-0.989639 31:-1 32:-1 33:-1 34:-1 
-0.03088512799208036 1:-0.999438 2:0.149497 3:-0.294402 4:-1 5:-0.470343 6:-0.348253 7:0.0599484 8:-0.861945 9:-0.999954 10:0.361975 11:-0.0387345 12:-0.999119 13:-0.0994698 14:-0.999149 15:-1 16:-1 17:-1 18:-1 19:-1 20:-1 21:-1 22:-1 23:-1 24:-1 25:-1 26:-1 27:-1 28:-1 29:-1 30:-1 31:-0.923506 32:-0.975195 33:-0.910589 34:-0.978336 
-0.04056359246470953 1:-0.999599 2:0.0779835 3:-0.981557 4:0.109807 5:-0.109643 6:0.305935 7:0.959306 8:0.154113 9:-0.99992 10:0.361885 11:-0.0387377 12:-0.999709 13:-0.0994965 14:-0.999704 15:-0.939192 16:-0.99405 17:-1 18:-1 19:-1 20:-1 21:-1 22:-1 23:-1 24:-1 25:-1 26:-1 27:-1 28:-1 29:-1 30:-1 31:-1 32:-1 33:-1 34:-1 
-0.03709320720006377 1:-0.999679 2:0.0469549 3:-0.999202 4:-0.0753126 5:-0.227386 6:0.286217 7:-0.618393 8:-0.875761 9:-0.999937 10:0.362106 11:-0.0387332 12:-0.999609 13:-0.0994905 14:-0.999612 15:-1 16:-1 17:-1 18:-1 19:-1 20:-1 21:-1 22:-1 23:-1 24:-1 25:-1 26:-1 27:-1 28:-1 29:-0.387664 30:-0.996671 31:-1 32:-1 33:-0.903559 34:-0.997227 
-0.04768021370369674 1:-0.999839 2:0.101004 3:-0.813427 4:0.542693 5:-0.0969787 6:0.229101 7:0.169039 8:-0.86157 9:-1 10:0.362068 11:-0.0387225 12:-0.999592 13:-0.0994885 14:-0.99961 15:-1 16:-1 17:-1 18:-1 19:-1 20:-1 21:-1 22:-1 23:-1 24:-1 25:-1 26:-1 27:-1 28:-1 29:-1 30:-1 31:-1 32:-1 33:-1 34:-1 
-0.03499126541970516 1:-0.999518 2:0.31155 3:-0.801317 4:0.617834 5:-0.27076 6:0.43913 7:-0.386226 8:-0.94137 9:-0.999016 10:0.361939 11:-0.0388192 12:-0.999474 13:-0.0995372 14:-0.999451 15:-0.99615 16:-0.78938 17:-1 18:-1 19:-1 20:-1 21:-1 22:-1 23:-1 24:-1 25:-1 26:-1 27:-1 28:-1 29:-1 30:-1 31:-1 32:-1 33:-0.381303 34:-0.868797 
-0.02911638347695143 1:-0.999679 2:0.529336 3:0.384329 4:0.8213 5:0.170579 6:-0.659378 7:0.00904894 8:-0.819829 9:-0.999869 10:0.362034 11:-0.0387386 12:-0.999281 13:-0.0995153 14:-0.999285 15:-0.985941 16:-0.960279 17:-1 18:-1 19:-1 20:-1 21:-1 22:-1 23:-1 24:-1 25:-0.958821 26:-0.94962 27:-1 28:-1 29:-1 30:-1 31:-1 32:-1 33:-0.981815 34:-0.951663 
-0.01577883666901846 1:-0.998956 2:0.643049 3:-0.98968 4:0.0919928 5:-0.258263 6:0.998643 7:-0.834563 8:-0.805973 9:-0.999992 10:0.362155 11:-0.0387346 12:-0.999292 13:-0.0994886 14:-0.999323 15:-0.84683 16:-0.995757 17:-0.929082 18:-0.997233 19:-0.922802 20:-0.997502 21:-1 22:-1 23:-0.952778 24:-0.999112 25:-1 26:-1 27:-1 28:-1 29:-1 30:-1 31:-1 32:-1 33:-1 34:-1 
-0.04961605823922322 1:-0.999679 2:0.749754 3:0.681939 4:0.91174 5:0.246807 6:-0.661395 7:0.0280196 8:-0.786821 9:-0.999389 10:0.362225 11:-0.038705 12:-0.999145 13:-0.0995402 14:-0.999055 15:-0.98603 16:-0.956946 17:-1 18:-1 19:-1 20:-1 21:-1 22:-1 23:-0.646097 24:-0.971345 25:-1 26:-1 27:-1 28:-1 29:-1 30:-1 31:-1 32:-1 33:-0.631852 34:-0.952562 
-0.0218442661585808 1:-0.999679 2:0.89621 3:0.946637 4:0.981424 5:0.925807 6:-0.665465 7:0.353335 8:0.0901474 9:-0.999133 10:0.361867 11:-0.0387781 12:-0.999132 13:-0.0994466 14:-0.998987 15:-0.725217 16:-0.950186 17:-1 18:-1 19:-1 20:-1 21:-1 22:-1 23:-1 24:-1 25:-1 26:-1 27:-1 28:-1 29:-1 30:-1 31:-1 32:-1 33:0.0507782 34:-0.996445 
